tree
version=v4
num_class=1
num_tree_per_iteration=1
label_index=0
max_feature_idx=10
objective=binary sigmoid:1
feature_names=lag1 lag3 lag7 lag14 rollsum_3 rollsum_7 rollsum_14 sin_doy cos_doy month dow
feature_infos=[0:48] [0:46] [0:36] [0:73] [0:87] [0:215] [0:270] [-0.9999994220246925:0.99998555065071859] [-0.99997919295908233:0.9999907524084426] [1:12] [0:6]
tree_sizes=7256 7331 7254 7278 7330 7307 7256 7214 7321 7334 7290 7294 7336 7310 7334 7281 7287 7259 7273 7193 7281 7273 7280 7258 7243 7287 7256 7291 7252 7303 7264 7318 7270 7285 7273 7259 7276 7256 7273 7321 7283 7319 7333 7284 7304 7300 7255 7284 7298 7311 7269 7282 7276 7277 7263 7337 7254 7318 7263 7243 7261 7326 7326 7306 7255 7250 7280 7301 7326 7238 7266 7277 7333 7283 7253 7250 7264 7278 7307 7276 7279 7247 7272 7268 7257 7282 7265 7288 7206 7249 7297 7299 7254 7239 7246 7269 7246 7270 7320 7253 7274 7258 7293 7298 7265 7263 7373 7260 7260 7238 7289 7253 7248 7335 7298 7253 7266 7387 7260 7258 7422 7293 7255 7367 7298 7283 7353 7363 7333 7269 7271 7369 7260 7415 7372 7261 7339 7252 7378 7337 7245 7262 7266 7246 7260 7332 7321 7337 7277 7331 7285 7282 7268 7338 7304 7241 7219 7269 7264 7346 7313 7292 7267 7256 7385 7269 7267 7256 7265 7247 7239 7261 7339 7237 7257 7248 7261 7070 7260 7224 7146 7387 7205 7241 7296 7302 7189 7206 7409 7215 7353 7217 7085 7290 7240 7295 7292 7424 7310 7206 7360 7232 7415 7220 7201 7229 7169 7193 7217 7171 7209 7188 7043 7384 7247 7304 7198 7204 7223 7222 7196 7246 7428 7122 7185 7195 7194 7213 7282 7258 7187 7398 7329 7162 7271 7238 7360

Tree=0
num_leaves=63
num_cat=0
split_feature=6 9 8 6 8 7 7 8 5 7 7 8 10 8 8 6 8 10 7 7 8 10 10 7 9 7 10 7 7 10 7 7 10 10 7 7 7 10 7 10 10 7 6 10 7 10 7 8 8 7 7 10 7 6 7 10 7 10 7 7 10 7
split_gain=3.2156e+07 1.69982e+06 448410 185660 100399 89171.6 28918.8 23913.7 21239.1 20237.4 18009.5 23474.1 21105.2 14025.3 13100.4 9370.33 8492.67 11669.4 7289.81 7171.65 11198.7 10572.3 7211.69 6792.75 5514.9 5422.75 4570.81 17321.3 4475.91 4097.75 7458.38 4442.83 4075.37 3781.27 3682.67 3596.25 9497.98 5217.24 4724.6 7887.78 4271.45 3628.79 3432.97 3416.68 4700.21 4657.09 3997.87 4563.77 3792.5 4675.13 3097.82 3177.97 3399.47 3063.55 3059.93 3690.03 3020.3 2948.17 2914.35 3806.32 3743.65 2909.58
threshold=1.0000000180025095e-35 4.5000000000000009 0.67644692717078936 2.5000000000000004 -0.57077231802681661 0.67167992559793654 -0.51297808981038739 0.44312301391210612 3.5000000000000004 -0.67803021058859214 0.99865421017599998 0.29958852271690523 2.5000000000000004 -0.7444366621422277 -0.57077231802681661 1.5000000000000002 1.0000000180025095e-35 5.5000000000000009 0.81925054981890411 0.98802474685579866 -0.099822328936730861 1.5000000000000002 2.5000000000000004 0.99700008544936913 3.5000000000000004 0.878110924644389 1.5000000000000002 0.85673801594079257 0.15101559051660998 5.5000000000000009 0.99274428880883148 0.99053107487289871 3.5000000000000004 2.5000000000000004 -0.21861968191509915 0.95752911693909493 0.93544191479114935 1.5000000000000002 0.95242846126021108 2.5000000000000004 1.5000000000000002 0.89404822654372251 4.5000000000000009 1.5000000000000002 0.95998215779580554 5.5000000000000009 0.98667101781630195 0.2332836900311728 -0.23537842981696178 0.97314989601849466 0.21862473630160603 2.5000000000000004 0.1849296026015865 9.5000000000000018 0.06553689391773225 5.5000000000000009 0.88621069759564464 4.5000000000000009 -0.63921128368950708 -0.70291267844185523 5.5000000000000009 0.98049069993378934
decision_type=2 2 2 2 2 2 2 2 2 2 2 2 2 2 2 2 2 2 2 2 2 2 2 2 2 2 2 2 2 2 2 2 2 2 2 2 2 2 2 2 2 2 2 2 2 2 2 2 2 2 2 2 2 2 2 2 2 2 2 2 2 2
left_child=1 10 5 4 13 7 32 28 14 -6 11 19 -12 34 -5 24 57 -18 -7 25 21 -21 -22 -24 -11 33 27 -20 -3 -23 31 -31 -4 -1 -2 36 37 56 -38 40 -40 -39 -16 44 -37 46 47 -45 -47 -50 51 -30 -53 -10 55 -13 -27 -14 59 60 -34 -51
right_child=3 2 6 8 9 18 -8 -9 53 15 12 54 16 -15 42 -17 17 -19 26 20 22 29 23 -25 -26 35 -28 -29 50 30 -32 -33 58 -35 -36 43 38 41 39 -41 -42 -43 -44 45 -46 48 -48 -49 49 61 -52 52 -54 -55 -56 -57 -58 -59 -60 -61 -62 -63
leaf_value=0.0072559334757032745 0.013946962930078299 -0.059173182986083192 -0.044573147939009752 0.034123849071245049 0.024730520525335902 -0.046230131128647087 -0.032106200029805243 -0.050933286077340004 0.050903536205902739 0.04154742835775832 -0.004913011763220957 -0.025868786361530619 -0.028285526981876093 0.020978565558411016 0.047321025394297875 0.044335007877299618 -0.029458417470903629 -0.0013651900070996842 -0.015974666652964466 -0.0043099315718025865 -0.035397556463193702 -0.031253994581978611 -0.028537586201315898 -0.013935064333338234 0.03672052474286816 -0.012267061756929643 -0.041346375822902418 -0.059076253936299478 -0.057709136688817414 -0.017742292394477825 0.0015340399439634153 -0.064654939686288604 -0.023433012648498775 -0.031786081873896074 -0.0052528670882467056 -0.063309551397979211 -0.017882424842355665 -0.04469281644313837 -0.034650911788514066 -0.019042703016404934 -0.064665168509237606 -0.032856544840080867 0.049958683128392162 -0.025550064093648513 -0.035408154811343753 -0.056193146035576139 -0.045096313659696421 -0.037094487869811399 -0.023613004619833445 -0.054642568293703522 -0.057306965373006016 -0.053334268272652058 -0.038083792198343541 0.053120475364201308 -0.022276298680813891 -0.045548102840367158 -0.028353013930271155 -0.047319920226479947 -0.035086591738816481 -0.046442170007218439 -0.059695845081136456 -0.032528349668989903
leaf_weight=5950.4655742943287 11850.931433781981 2833802.3650491089 235005.64102891088 57641.916440024972 66237.866729289293 300972.25958825648 761062.59850291908 404928.15854743123 822344.49058024585 540929.86956198514 93154.461124286056 61607.643681228161 13556.421595707536 60302.651083722711 877383.67219573259 672740.60665816069 34759.298969820142 21560.875271692872 27225.342523545027 41031.512641489506 78449.546311497688 32253.563464701176 90713.475354909897 41922.507508009672 351694.46478138864 13097.924236670136 99125.426769286394 12129.929865092039 41970.257326215506 4449.2242652624846 11471.183638215065 3070.9822445511818 13606.671301692724 3571.9793419092894 37246.534538581967 5777.7165946662426 90694.725413694978 29782.077778860927 13996.669054090977 27225.592526391149 6141.9644891023636 107456.1285469383 901138.03459668159 169707.5184635818 91497.970850050449 9237.4465879797935 12532.92752596736 37664.282183647156 18115.645222842693 11451.683784082532 668054.38726772368 30152.325651213527 23361.364900052547 1772512.9911614209 1701830.4068467766 9963.4423847347498 53102.692877903581 15943.407806038857 97824.934258416295 59837.153984427452 3156.4817494153976 10068.44177082181
leaf_count=9698 16702 10821511 784368 42917 69819 1020974 2227526 1436370 157621 270442 189182 167656 37972 71018 271741 274550 98704 41266 65214 82513 238120 93497 254840 97601 231768 29774 320308 46284 158250 10917 20859 12284 35937 10418 76059 22853 222945 99521 42141 67967 24568 317167 200779 460050 277758 34370 42048 116430 47953 42023 2510037 109344 72978 210265 4429805 33576 148858 54658 295928 203402 12110 29610
internal_value=-0.00481964 -0.0423684 -0.052084 0.0474091 0.0391083 -0.0564371 -0.035565 -0.0578456 0.0506706 0.0409737 -0.0240269 -0.0246179 -0.0148012 0.0112863 0.0482013 0.041661 -0.0255342 -0.0187037 -0.043609 -0.0282431 -0.0243761 -0.0156581 -0.0281872 -0.0239223 0.0396457 -0.0298789 -0.0379118 -0.0292604 -0.0586237 -0.0247444 -0.013688 -0.0369055 -0.0419941 -0.00739016 -0.000618269 -0.0301816 -0.0279669 -0.0320886 -0.0218933 -0.029573 -0.0438075 -0.0354254 0.0486575 -0.0322476 -0.037066 -0.0305036 -0.0286417 -0.027647 -0.0388808 -0.0348447 -0.0565842 -0.051527 -0.0466775 0.0524179 -0.0225319 -0.0286089 -0.0251706 -0.038574 -0.0385191 -0.0429022 -0.0302643 -0.0442981
internal_weight=1.47571e+07 8.58503e+06 5.61222e+06 6.17202e+06 1.741e+06 4.44172e+06 1.17049e+06 4.00227e+06 4.43102e+06 1.6316e+06 2.97281e+06 2.79384e+06 178974 109400 1.83616e+06 1.56536e+06 85820 56320.2 439453 1.02044e+06 303362 92276.5 211086 132636 892624 717074 138481 39355.3 3.59734e+06 51245 18991.4 7520.21 409431 9522.44 49097.5 707551 341498 203439 138059 47364.2 20138.6 137238 1.77852e+06 366054 97275.7 268778 219905 207372 48873.2 39635.8 763538 95483.9 53513.7 2.59486e+06 1.7734e+06 71571.1 66200.6 29499.8 174425 76600.3 16763.2 21520.1
internal_count=29923824 28030143 20120541 1893681 1010358 16561270 3559271 15108490 883323 846579 7909602 7487820 421782 163779 515437 776760 232600 139970 1452780 2856783 810631 220070 590561 352441 502210 2046152 431806 111498 13672120 137557 44060 23201 1331745 20116 92761 2026036 952941 595320 357621 134676 66709 416688 472520 1073095 300611 772484 618528 576480 153956 119586 2850609 340572 182322 367886 4631037 201232 178632 92630 547377 251449 48047 71633
is_linear=0
shrinkage=1


Tree=1
num_leaves=63
num_cat=0
split_feature=5 9 3 8 7 3 3 5 3 8 8 7 7 8 7 7 7 7 7 7 7 7 8 5 9 7 7 7 7 8 7 7 5 3 7 7 7 7 7 5 7 8 7 7 8 3 7 7 7 7 8 7 7 7 7 7 8 9 9 7 7 7
split_gain=2.39637e+07 3.65027e+06 718305 628127 245780 92191.4 90056.9 67954.6 66346 49390.4 41662.9 29224.9 17371.9 15585.4 14254 16993.1 23130 11353.3 7349.78 7262.32 9700.54 6947.97 6833.78 6118.98 5569.04 5471.66 5382.37 5210.3 5149.55 4456.93 4247.47 3429.23 3072.74 2800.31 2744 2734.85 2700.57 3340.67 2385.86 2344.28 2285.06 2281.22 1931.86 3687.87 2129.64 1897.46 1999.81 1820.93 2229.81 1763.09 1724.61 1809.14 4066.71 2461.53 4379.49 2429.97 1717.42 1948.58 1631.28 2417.03 2708.33 3152.13
threshold=1.0000000180025095e-35 4.5000000000000009 1.0000000180025095e-35 0.73721509932751383 0.67167992559793654 1.0000000180025095e-35 1.0000000180025095e-35 2.5000000000000004 1.0000000180025095e-35 0.44312301391210612 -0.57077231802681661 -0.51297808981038739 0.81925054981890411 -0.36648370705903521 0.3342611484689354 0.95242846126021108 0.99818282439137029 -0.66528616069191593 0.878110924644389 0.98049069993378934 0.99374995976406788 0.57077594689671507 -0.7444366621422277 5.5000000000000009 3.5000000000000004 0.77788564761185042 -0.72696319516528884 0.7090011537757156 0.99053107487289871 -0.065537083312030994 0.86548282553247169 0.76696112484652046 1.5000000000000002 1.0000000180025095e-35 -0.54939360607974019 0.06553689391773225 0.80926549319045582 0.94704596667653973 0.58481550752069722 1.5000000000000002 0.90892735371523092 -0.57077231802681661 0.15101559051660998 0.21862473630160603 0.26659387353423869 1.0000000180025095e-35 -0.21861968191509915 0.099822040462190967 0.15101559051660998 0.80926549319045582 -0.35042475891464198 0.91939013254733981 0.93237596376505805 0.85673801594079257 0.87397152483179585 0.9053161325100999 -0.013976481981245173 3.5000000000000004 11.500000000000002 -0.29343379936893921 -0.40614700388750385 -0.46801505794253101
decision_type=2 2 2 2 2 2 2 2 2 2 2 2 2 2 2 2 2 2 2 2 2 2 2 2 2 2 2 2 2 2 2 2 2 2 2 2 2 2 2 2 2 2 2 2 2 2 2 2 2 2 2 2 2 2 2 2 2 2 2 2 2 2
left_child=1 2 13 4 8 12 11 10 9 21 22 -5 31 18 35 25 19 -12 -1 -17 28 42 45 41 33 27 -11 -16 -21 -22 -14 -6 -26 39 -10 -15 -27 50 -23 -19 -20 -9 44 -44 -3 46 -2 -37 -49 -7 -38 53 -53 -52 -55 -56 -18 -58 -13 60 61 -60
right_child=7 3 -4 6 5 49 -8 23 34 26 17 58 30 14 15 16 56 24 40 20 29 38 -24 -25 32 36 -28 -29 -30 -31 -32 -33 -34 -35 -36 47 37 -39 -40 -41 -42 -43 43 -45 -46 -47 -48 48 -50 -51 51 52 -54 54 55 -57 57 -59 59 -61 -62 -63
leaf_value=0.0069010563108266925 0.025856086235900317 -0.052397205217926866 0.04817042196567331 -0.032005900920043018 -0.032312227896124833 0.02420115132231359 0.043289975431923831 0.044568714060257517 0.030997849073542749 -0.043476141472409316 0.035345147576698065 -0.015254214783015045 -0.020931418006108437 -0.017308597350804828 -0.0054989460725215593 -0.015347996814581103 0.0021032714827758552 0.048531833213991793 -0.020086676451635609 -0.0093268503298388344 -0.022647562392686144 -0.037333365030089515 0.033499447160261132 0.056144440249508723 0.045298762183149176 0.0015308536269235617 -0.036459298214998541 -0.011443311128145239 -0.0011647173177195015 -0.012135435398800873 -0.036568691171920846 -0.038679747771786496 0.049586000558599089 0.053444613610428536 0.0032129358280433514 -0.0064504455034828656 -0.011287600674929411 0.0023322838957014064 -0.04721829164662756 0.051498284949062625 -0.013741722850109895 0.05363226534583241 -0.04487803827927505 -0.051299587409440676 -0.049511657042430539 0.040149197788998746 0.0078830662602077349 -0.016497998215356649 -0.010869605385199354 0.041594165467075735 -0.0024479118026297505 0.0041793535387143156 -0.0046375368117024633 -0.015280898379436228 -0.0027813263222043589 -0.010495758191636522 -0.00085567527126454487 -0.0077081421382047544 -0.02715654240725764 -0.019943109786144841 -0.025950118213324089 -0.017651763982805223
leaf_weight=11999.700938150287 7796.8633292913437 2603953.4920021445 216087.37818033993 295658.05204969645 209671.07200154662 9910.932067066431 18238.736455336213 25540.030635222793 6844.8493617475033 411893.55388440192 54437.083979204297 41981.770322799683 144443.37977054715 79128.389462664723 769049.14269194007 358588.33073663712 77883.06105914712 586628.3705624193 114235.62465421855 207316.87406657636 54073.721797198057 25495.405582234263 49378.521274492145 1869969.9938721508 387439.78869375587 97811.783844470978 129330.47407107055 160385.06307217479 104701.97310854495 110452.4963888824 17533.010791361332 119590.20129522681 246340.59451366961 226498.86845192313 6005.9761357009411 61197.896176666021 31898.235092774034 71963.542729392648 160425.57973326743 406388.06567119062 92436.893328979611 1254336.2850777656 96147.641501620412 496804.57011955976 252952.37795847654 2533.6797906607389 19525.284469947219 79564.821867257357 310980.56987175345 11159.496057763696 150385.69167236984 67154.898620814085 157507.00768345594 49537.347222715616 119203.06227597594 53126.647389769554 104017.83219243586 58270.476998463273 44350.985020935535 464926.57045090199 168440.92928850651 107621.52602310479
leaf_count=21519 9002 9918672 84535 921360 655837 11874 10123 13112 6660 1444036 45116 107170 395501 206940 1704031 913996 152740 223633 309340 486013 150990 84345 44126 228582 189840 193784 422365 386672 216800 269403 57273 399311 84711 48685 11470 137761 76974 140502 583129 114216 230787 260078 341678 1873328 939416 1709 34417 205478 744986 6819 318112 126952 344016 125857 253220 126292 213961 133190 130667 1257870 489559 283283
internal_value=-4.2197e-08 -0.0279542 -0.00493501 -0.0428015 -0.0476471 -0.0280324 -0.0228361 0.0523096 -0.0500455 -0.0502549 0.0479651 -0.0239101 -0.0306681 -0.00816492 -0.00765606 -0.00680246 -0.0097634 0.0488504 -0.0159236 -0.0121229 -0.00969611 -0.0515135 0.0266486 0.0550502 0.0492471 -0.00495993 -0.0417995 -0.00652473 -0.00658796 -0.0155905 -0.0226243 -0.0346251 0.0469652 0.0504329 0.0180138 -0.0121636 -0.00313873 -0.0037905 -0.045863 0.0497459 -0.0172489 0.0534514 -0.0518181 -0.0502584 -0.0521417 0.0153171 0.0130129 -0.0112623 -0.0120163 0.0334147 -0.00449122 -0.00412801 -0.00200201 -0.00541108 -0.00741953 -0.00515963 -0.00155871 -0.00331614 -0.0210169 -0.021325 -0.02333 -0.0204258
internal_weight=1.47492e+07 9.61234e+06 3.76896e+06 5.84338e+06 4.70216e+06 512308 1.14122e+06 5.13681e+06 4.18985e+06 4.177e+06 1.98697e+06 1.12298e+06 491238 3.55287e+06 3.3342e+06 2.80333e+06 1.0753e+06 1.90773e+06 218672 835133 476545 3.63578e+06 79234.3 3.14985e+06 1.8533e+06 1.72802e+06 541224 929434 312019 164526 161976 329261 633780 1.21952e+06 12850.8 530872 798588 700776 185921 993016 206673 1.27988e+06 3.44986e+06 592952 2.85691e+06 29855.8 27322.1 451743 390545 21070.4 628813 596915 224662 372253 221867 172330 240171 162288 827322 785340 320413 151973
internal_count=29923824 28626597 8274851 20351746 17151714 1526615 3200032 1297227 15625099 15606969 795455 3189909 1507922 8190316 7628670 6333505 2537093 706201 561646 2037202 1123206 13740568 89254 501772 661085 3796412 1866401 2090703 702813 420393 452774 1055148 274551 386534 18130 1295165 1705709 1511925 667474 337849 540127 273190 13073094 2215006 10858088 45128 43419 1088225 950464 18693 1371423 1294449 470968 823481 505369 379512 499891 347151 2268549 2161379 903509 413950
is_linear=0
shrinkage=0.03


Tree=2
num_leaves=63
num_cat=0
split_feature=6 9 8 6 8 9 8 8 8 6 8 9 8 8 8 8 10 8 10 10 8 8 8 8 8 8 6 10 8 8 8 10 8 10 8 10 10 8 10 8 10 8 4 8 10 6 10 8 8 8 10 8 10 8 8 10 8 8 8 8 10 8
split_gain=2.87642e+07 1.4867e+06 397108 155810 88382.7 56911.4 25302.1 22662.3 22646.1 17800.5 13516 13482.4 12588 9993.68 9097.88 7810.61 22340.1 17328.1 7153.54 6891.28 8604.56 7741.07 6534.04 7812.48 7006.61 6310.34 4985.53 4329.22 16168.4 4316.11 4880.87 9631.42 4895.03 6116.58 5883.51 5166.46 4822.98 4233.74 4075.47 8349.46 3859.8 3778.63 3696.9 3687.28 3558.3 3028.82 3021.52 4619.71 4128.78 2849.69 2731.27 2792.38 5182.54 8033 3490.32 2823.54 6601.78 5141.33 2681.63 3612.13 3536.82 2806.44
threshold=1.0000000180025095e-35 4.5000000000000009 0.67644692717078936 2.5000000000000004 -0.57077231802681661 5.5000000000000009 0.8511460603353429 0.44312301391210612 -0.73284120334876357 6.5000000000000009 -0.15101602693478741 4.5000000000000009 -0.73284120334876357 -0.57077231802681661 0.67644692717078936 0.04621408538533487 1.5000000000000002 0.29958852271690523 5.5000000000000009 2.5000000000000004 -0.048362832084465616 -0.031174269516803289 1.0000000180025095e-35 -0.082691941062253513 -0.11692317777808843 -0.57077231802681661 1.5000000000000002 1.5000000000000002 -0.5129677127369543 -0.4755978891912595 -0.41399101439218416 1.0000000180025095e-35 -0.30164489695395946 1.5000000000000002 -0.35042475891464198 5.5000000000000009 5.5000000000000009 -0.13398942717002907 2.5000000000000004 0.097680735332368748 3.5000000000000004 -0.23537842981696178 1.0000000180025095e-35 -0.065537083312030994 2.5000000000000004 1.5000000000000002 3.5000000000000004 -0.46039597980994923 -0.46039597980994923 -0.21862536810265826 1.5000000000000002 -0.67168186667784702 4.5000000000000009 -0.69676771491221523 -0.69676771491221523 5.5000000000000009 -0.72102888505294738 -0.72102888505294738 0.76002003530985496 0.70138038092733435 5.5000000000000009 0.80290535434334509
decision_type=2 2 2 2 2 2 2 2 2 2 2 2 2 2 2 2 2 2 2 2 2 2 2 2 2 2 2 2 2 2 2 2 2 2 2 2 2 2 2 2 2 2 2 2 2 2 2 2 2 2 2 2 2 2 2 2 2 2 2 2 2 2
left_child=1 10 5 4 12 8 40 -7 -3 13 29 26 -2 -5 45 16 -12 38 19 20 43 -22 23 24 37 50 -6 28 -27 44 31 -31 34 -34 36 -35 -32 -20 -17 -40 -4 -37 -11 -18 -1 -13 48 -48 -33 -43 -10 52 53 -52 55 57 -57 -54 59 60 -42 -60
right_child=3 2 6 9 11 7 -8 -9 25 42 15 14 -14 -15 -16 17 18 -19 22 -21 21 -23 -24 -25 -26 27 -28 -29 -30 30 32 46 33 35 -36 41 -38 -39 39 -41 58 49 -44 -45 -46 -47 47 -49 -50 -51 51 -53 54 -55 -56 56 -58 -59 61 -61 -62 -63
leaf_value=0.011506884831317768 0.0050640160909200356 -0.0477642247090821 -0.037621160973178754 0.036719331943722844 0.04334732451812167 -0.051050837446056575 -0.025854869571280015 -0.043524631962366313 -0.043872848105392888 0.051742101032598846 -0.0026750283525549252 0.026665339262889557 0.025444280734569238 0.050433405493080383 0.041424055013639667 -0.028583536722507619 -0.022354949991817221 -0.016974838966152019 -0.012257532384787374 -0.025545137790486214 0.014087113529976695 -0.016747098777119402 0.0034424700678287725 -0.035910276858553775 0.0041165431968809363 -0.010195996678008339 0.047101486403566477 -0.034794321551634734 -0.05186847354100789 -0.008652345867097868 -0.02096870485647823 -0.021578761834468472 -0.032865441340822109 -0.019482330592330864 -0.012606024902663535 -0.04943588587247684 -0.043019968935065378 -0.058069085551516415 -0.0090451611569571325 -0.024886878810782026 -0.016976953529889795 -0.012574588953669991 0.054503982968590603 -0.058587303114342827 -0.026368608154226859 0.037677507460764197 -0.0481563505666577 -0.024980660928409278 -0.047854075346583445 -0.037227224176884434 -0.048088083353190911 -0.040331744518601699 -0.04778538794949154 -0.025011641498449217 -0.039016194086353671 0.011522835941074977 -0.04122762673071708 -0.011910727762827944 -0.023403521243016763 -0.039385448337745863 -0.052259477490479531 -0.033574317103146421
leaf_weight=5950.2019093334675 52056.788809806108 272470.65886001289 234651.25114572048 49272.470213249326 726384.01201841235 3313991.4177977145 760527.45424567163 404029.53723576665 81773.835869237781 545780.42829591036 118082.3557074964 63450.940810501575 57299.795720800757 1641703.721141234 237276.32192352414 132780.42294977605 14332.798249468207 1773010.3479073048 4448.4350039213896 123862.62183271348 13930.972168698907 15457.792921930552 21560.839389458299 13131.134177938104 16103.964619159698 27216.231122493744 567296.62351424992 99024.783639639616 12106.450570940971 17112.468696326017 95171.472861409187 7189.2262136340141 60316.096910119057 142452.74523408711 90685.851806595922 9225.6902608275414 9851.3222298026085 3067.6762531995773 37464.916378453374 149183.87906299531 13594.555330872536 8008.7105308622122 2182708.9535270929 3069.2660065293312 3571.4470912069082 34831.973492696881 9437.0958981513977 43105.151140928268 21449.618205472827 8924.1080650985241 34640.049219846725 126765.35551849008 6039.1813374757767 22334.287642836571 10320.82465326786 6557.1322816610336 3165.116126537323 8885.7890560626984 49414.121185809374 59737.911513328552 3149.2151336669922 48301.373886227608
leaf_count=9698 97275 1009907 784368 37350 385452 12662213 2227526 1436370 290483 123224 250751 70377 66504 447100 141531 399922 40252 4631037 10917 359404 21754 39902 41266 42752 30630 65214 223777 320308 46284 40184 262536 20003 190520 385312 222945 34370 34352 12284 87971 430521 35937 19835 275649 12284 10418 25442 34692 125175 78378 29537 127766 435684 22216 65395 34983 11305 10960 22182 141463 203402 12110 154465
internal_value=3.26703e-08 -0.0355369 -0.0446403 0.0494595 0.0418512 -0.0487456 -0.0290905 -0.050233 -0.0409707 0.0524526 -0.0183875 0.0436036 0.0157429 0.0500338 0.0382446 -0.0174423 -0.013274 -0.0181337 -0.0187401 -0.0218398 -0.0120308 -0.00213087 -0.00966834 -0.01736 -0.00704615 -0.0367525 0.0449936 -0.0314499 -0.023027 -0.0227181 -0.0230825 -0.029107 -0.0216879 -0.0246662 -0.018204 -0.021733 -0.0230376 -0.030961 -0.0245656 -0.0217071 -0.0351092 -0.0339881 0.0539515 -0.0287486 -0.00270068 0.0305685 -0.0334186 -0.0291441 -0.0412593 -0.0255689 -0.0391938 -0.0374441 -0.0334623 -0.0390426 -0.0243692 -0.0182344 -0.00565245 -0.0264293 -0.0317254 -0.0359335 -0.0236159 -0.0284313
internal_weight=1.47287e+07 8.57064e+06 5.5987e+06 6.15806e+06 1.7386e+06 4.42932e+06 1.16938e+06 3.71802e+06 711300 4.41947e+06 2.97194e+06 1.62924e+06 109357 1.69098e+06 335559 2.43949e+06 347048 2.09244e+06 228966 170653 46790.8 29388.8 58312 36751.2 23620.1 438829 1.29368e+06 138347 39322.7 532451 522930 98293.6 424636 228927 195709 168611 105023 7516.11 319429 186649 408848 26158.5 2.72849e+06 17402.1 9521.65 98282.9 81181.1 52542.2 28638.8 16932.8 300482 218708 91942.4 56974.3 34968 24647.2 9722.25 14925 174197 76481.7 16743.8 97715.5
internal_count=29923824 28030143 20120541 1893681 1010358 16561270 3559271 14098583 2462687 883323 7909602 846579 163779 484450 237350 6411647 862196 5549451 611445 473596 114192 61656 137849 96583 53831 1452780 609229 431806 111498 1497955 1477839 298432 1179407 659574 519833 469054 296888 23201 918414 518492 1331745 83742 398873 52536 20116 95819 258248 159867 98381 49372 1020974 730491 294807 193161 101646 66663 22265 44398 547377 251449 48047 295928
is_linear=0
shrinkage=0.03


Tree=3
num_leaves=63
num_cat=0
split_feature=6 9 8 6 8 9 8 8 8 6 9 8 8 8 8 8 10 8 10 10 8 8 8 8 8 8 6 10 8 8 8 10 8 10 8 10 10 8 8 10 10 4 8 8 10 10 8 8 8 8 6 8 8 8 10 10 8 10 8 8 10 8
split_gain=2.71349e+07 1.40961e+06 377799 148945 83643.7 54308.3 23962.6 21654.7 21573.1 17084 12813.8 12753.5 11856.1 9530.1 8622.82 7352.7 21042.3 16344.4 6736.81 6491.83 8107.75 7284.26 6153.54 7364.83 6601.88 5986.13 4762.38 4085.82 15292.7 4066.11 4610.57 9088.73 4618.82 5773.79 5547.64 4881.54 4552.79 4004.56 3902.42 6054.36 3654.2 3584.73 3577.36 3485.36 3349.47 2935.65 4952.28 4596.72 2893.03 2873.87 2864.3 2690.11 2653.87 2594.56 3483.05 2586.95 2643.7 4899.93 7605.65 3297.08 2662.95 6222.99
threshold=1.0000000180025095e-35 4.5000000000000009 0.67644692717078936 2.5000000000000004 -0.57077231802681661 5.5000000000000009 0.8511460603353429 0.44312301391210612 -0.73284120334876357 6.5000000000000009 4.5000000000000009 -0.15101602693478741 -0.73284120334876357 -0.57077231802681661 0.67644692717078936 0.04621408538533487 1.5000000000000002 0.29958852271690523 5.5000000000000009 2.5000000000000004 -0.048362832084465616 -0.031174269516803289 1.0000000180025095e-35 -0.082691941062253513 -0.11692317777808843 -0.57077231802681661 1.5000000000000002 1.5000000000000002 -0.5129677127369543 -0.4755978891912595 -0.41399101439218416 1.0000000180025095e-35 -0.30164489695395946 1.5000000000000002 -0.35042475891464198 5.5000000000000009 5.5000000000000009 -0.13398942717002907 0.14888728888808328 2.5000000000000004 3.5000000000000004 1.5000000000000002 -0.23537842981696178 -0.065537083312030994 2.5000000000000004 5.5000000000000009 -0.46039597980994923 -0.42958798411962301 0.080547328232315238 -0.57077231802681661 1.5000000000000002 -0.21862536810265826 -0.048362832084465616 0.99855310097228334 5.5000000000000009 1.5000000000000002 -0.67168186667784702 4.5000000000000009 -0.69676771491221523 -0.69676771491221523 5.5000000000000009 -0.72102888505294738
decision_type=2 2 2 2 2 2 2 2 2 2 2 2 2 2 2 2 2 2 2 2 2 2 2 2 2 2 2 2 2 2 2 2 2 2 2 2 2 2 2 2 2 2 2 2 2 2 2 2 2 2 2 2 2 2 2 2 2 2 2 2 2 2
left_child=1 11 5 4 12 8 40 -7 -3 13 26 29 -2 -5 50 16 -13 38 19 20 43 -22 23 24 37 55 -6 28 -27 44 31 -31 34 -34 36 -35 -32 -20 39 -17 -4 49 -37 -18 -1 -33 -47 -48 -41 -11 -12 -44 -15 -19 -55 -10 57 58 -57 60 -59 -62
right_child=3 2 6 9 10 7 -8 -9 25 41 14 15 -14 52 -16 17 18 53 22 -21 21 -23 -24 -25 -26 27 -28 -29 -30 30 32 45 33 35 -36 42 -38 -39 -40 48 -42 -43 51 -45 -46 46 47 -49 -50 -51 -52 -53 -54 54 -56 56 -58 59 -60 -61 61 -63
leaf_value=0.011163034751686545 0.0049119789548300952 -0.046476069435350709 -0.036559834332193397 0.035668335424760944 0.042129249986371929 -0.049693852876305719 -0.025100963101762915 -0.042327191294125821 -0.042654320179822555 0.040303670314533857 0.025883002731531719 -0.0025948266450097268 0.024693009133710638 0.046546661280656251 0.040253607527150591 -0.027703839953574734 -0.021698906695907152 -0.016235623225228476 -0.011892343502850228 -0.024794639614297176 0.013664940436464712 -0.01624677451132725 0.0033391842115799123 -0.03487537155434528 0.0039929509010090715 -0.0098922776106426455 0.045802513163439626 -0.033798848338340258 -0.050463150756028113 -0.0083944128909200569 -0.020351468977798312 -0.035555296943624734 -0.031915819980006012 -0.018907065474705581 -0.012229910664169501 -0.04806870966313348 -0.041790796278888646 -0.056484900461036963 -0.026686924915759708 -0.0063821728959516759 -0.030818630572710622 0.053285664698084212 -0.012200918735875733 -0.05695991542683921 -0.025590782506253507 -0.056776712201370497 -0.0073444077827099271 -0.050139199102323423 -0.01861063883215773 0.051237078501032075 0.036597912460432237 -0.036163313990018493 0.049649114387103094 -0.019407160519859714 -0.038540697964317368 -0.046762211204773807 -0.039203903599476571 -0.025670341101597771 -0.024289355752342055 -0.037919262296240062 0.011172444817923668 -0.040074096239252587
leaf_weight=5949.5204737782478 52058.026647612453 271634.06348201632 234225.43045321107 49203.602222189307 724984.12078617513 3302517.6524725705 759878.22651010752 403010.54937541485 81589.290276870131 22212.846968069673 63408.369574010372 118080.19581289589 57272.22799281776 305419.56237526238 236856.29338544607 54430.147563323379 14323.31777690351 1700938.5058701038 4447.5301695913076 123784.54538244009 13930.55687482655 15455.86191226542 21560.9400973171 13115.419240638614 16104.375879094005 27210.405467331409 565903.66784016788 98885.139563173056 12070.824811518192 17109.208135426044 95116.994846403599 62635.550832346082 60248.409412145615 142384.40733133256 90670.768850028515 9203.7836062908173 9837.068298920989 3059.2462589740753 184120.46496926248 25433.770496964455 173946.86460132897 1825542.3777566999 8006.4327065497637 3062.3701196908951 3569.655194863677 3061.2284626364708 12632.710973024368 2750.0731265097857 55222.664819285274 870986.35756841302 34784.392506331205 8911.2644954323769 1331342.4984929264 61552.304597198963 9947.6424619853497 34554.791744500399 126503.65221521258 14905.753867834806 22308.889627531171 10301.118601679802 6559.8812071830034 3158.6588463187218
leaf_count=9698 97275 1009907 784368 37350 385452 12662213 2227526 1436370 290483 12790 70377 250751 66504 109638 141531 163825 40252 4429805 10917 359404 21754 39902 41266 42752 30630 65214 223777 320308 46284 40184 262536 205910 190520 385312 222945 34370 34352 12284 548197 57554 547377 217422 19835 12284 10418 12284 29725 10329 148838 168661 25442 29537 337462 167656 33576 127766 435684 44398 65395 34983 11305 10960
internal_value=1.67353e-07 -0.0345395 -0.0434227 0.0481192 0.0406747 -0.0474366 -0.0282503 -0.0488927 -0.0398336 0.0510519 0.0423827 -0.0178437 0.0152744 0.0486791 0.0371546 -0.0169255 -0.0128805 -0.0175964 -0.0181878 -0.0211969 -0.0116748 -0.00206712 -0.00938253 -0.016851 -0.00683772 -0.0357145 0.0437396 -0.0305471 -0.0223604 -0.0220519 -0.0224059 -0.0282646 -0.0210503 -0.0239447 -0.0176656 -0.0210944 -0.0223613 -0.0300707 -0.0238455 -0.0199725 -0.0341132 0.0525233 -0.0330161 -0.027913 -0.00262043 -0.0324573 -0.0219351 -0.014998 -0.0147547 0.0509652 0.0296791 -0.0248245 0.0490702 -0.016471 -0.0220697 -0.0380952 -0.0363909 -0.0325137 -0.0379462 -0.0236678 -0.0177046 -0.00548548
internal_weight=1.46939e+07 8.55392e+06 5.58326e+06 6.13997e+06 1.73527e+06 4.41521e+06 1.16805e+06 3.70553e+06 709682 4.40471e+06 1.62594e+06 2.97066e+06 109330 1.68597e+06 335049 2.43857e+06 346924 2.09165e+06 228844 170557 46772.1 29386.4 58287.5 36726.6 23611.2 438048 1.29089e+06 138166 39281.2 532087 522568 98188.8 424379 228754 195625 168506 104954 7506.78 319207 135087 408172 2.71874e+06 26121.5 17385.7 9519.18 81079.6 18444 15382.8 80656.4 893199 98192.8 16917.7 1.63676e+06 1.77244e+06 71499.9 299882 218293 91789.1 56863.7 34925.4 24624.3 9718.54
internal_count=29923824 28030143 20120541 1893681 1010358 16561270 3559271 14098583 2462687 883323 846579 7909602 163779 484450 237350 6411647 862196 5549451 611445 473596 114192 61656 137849 96583 53831 1452780 609229 431806 111498 1497955 1477839 298432 1179407 659574 519833 469054 296888 23201 918414 370217 1331745 398873 83742 52536 20116 258248 52338 40054 206392 181451 95819 49372 447100 4631037 201232 1020974 730491 294807 193161 101646 66663 22265
is_linear=0
shrinkage=0.03


Tree=4
num_leaves=63
num_cat=0
split_feature=5 9 3 8 7 3 3 5 3 8 8 7 7 8 7 7 7 7 7 7 7 7 8 5 9 7 7 7 8 8 7 7 5 7 7 7 3 7 7 7 7 7 5 8 7 7 7 7 7 3 7 7 7 9 7 7 7 7 8 7 7 7
split_gain=2.01465e+07 3.08047e+06 600299 537488 209872 76428 74905.7 59350.2 55318.2 43004.1 35221.9 24415.3 14683.3 13167.6 12395.3 14586.1 19767.9 9973.41 6166.93 8637.22 6145.54 5789.14 5693.11 5398.44 5006.04 4784.88 4984.57 4560 4301.17 4082.05 3680.3 3006.85 2731.05 2730.57 2497.97 2943.62 2426.72 2385.51 2377.67 2254.51 2178.88 3624.52 2022.64 1966.6 1927.74 1893.17 1895.24 1745 2038.28 1636.22 1891.11 1606.23 1561.39 1618.57 1880.64 1559.05 1604.91 1480.68 1446 1498.56 3675.87 2394.56
threshold=1.0000000180025095e-35 4.5000000000000009 1.0000000180025095e-35 0.73721509932751383 0.67167992559793654 1.0000000180025095e-35 1.0000000180025095e-35 2.5000000000000004 1.0000000180025095e-35 0.51113019672828186 -0.57077231802681661 -0.51297808981038739 0.81925054981890411 -0.36648370705903521 0.3342611484689354 0.95242846126021108 0.99818282439137029 -0.66528616069191593 0.98049069993378934 0.99374995976406788 0.878110924644389 0.57077594689671507 -0.7444366621422277 5.5000000000000009 3.5000000000000004 0.77788564761185042 0.7090011537757156 0.99053107487289871 0.33222858587828868 -0.065537083312030994 0.86548282553247169 0.76696112484652046 1.5000000000000002 -0.72696319516528884 0.80926549319045582 0.94704596667653973 1.0000000180025095e-35 0.06553689391773225 -0.54939360607974019 0.58481550752069722 0.15101559051660998 0.21862473630160603 1.5000000000000002 -0.54940789553007929 0.90892735371523092 -0.82415615971448097 -0.78856175031405207 0.099822040462190967 0.15101559051660998 1.0000000180025095e-35 -0.21861968191509915 0.80926549319045582 1.0000000180025095e-35 11.500000000000002 -0.48314718476766422 0.99966190462023474 0.99865421017599998 -0.72101013194340913 -0.35042475891464198 0.91939013254733981 0.93237596376505805 0.85673801594079257
decision_type=2 2 2 2 2 2 2 2 2 2 2 2 2 2 2 2 2 2 2 2 2 2 2 2 2 2 2 2 2 2 2 2 2 2 2 2 2 2 2 2 2 2 2 2 2 2 2 2 2 2 2 2 2 2 2 2 2 2 2 2 2 2
left_child=1 2 13 4 8 12 11 10 9 21 22 -5 31 20 37 25 18 -12 -17 27 -1 28 49 43 36 26 -16 -20 40 -21 -14 -6 -26 45 -27 58 42 -15 -10 -23 -3 -42 -19 -9 -22 -11 -47 -39 -49 50 -2 -7 53 -13 -55 56 -18 -35 -36 61 -61 -60
right_child=7 3 -4 6 5 51 -8 23 38 33 17 52 30 14 15 16 55 24 19 29 44 39 -24 -25 32 34 -28 -29 -30 -31 -32 -33 -34 57 35 -37 -38 47 -40 -41 41 -43 -44 -45 -46 46 -48 48 -50 -51 -52 -53 -54 54 -56 -57 -58 -59 59 60 -62 -63
leaf_value=0.0062729363008434515 0.024546735118673838 -0.048294746671329741 0.044238145427226323 -0.029298588240165204 -0.029622286610036012 0.021549453179894533 0.039626501023352904 0.04157581675136144 0.028210898501967056 -0.034761407574123764 0.032284829410525608 -0.013593153530324108 -0.019161032278507604 -0.016019737748631531 -0.004959783934892598 -0.014113637084843582 -0.0056461599451617175 0.044701341536439211 -0.0085446268514930875 -0.021228263227365367 -0.018437536781940655 -0.033847540752375588 0.030798542711878481 0.051836955274338403 0.041597890324026866 0.0016989029279740062 -0.010778035596322549 -0.00085738348831680732 -0.044039054733898929 -0.011157767287367761 -0.0337574680725546 -0.035601483360329193 0.045656083340887429 -0.027414974572375038 -0.010310410497127741 0.0023285839184357142 0.049292786408165035 -0.0056550035148841792 0.0023176807619877423 -0.043493530981746506 -0.040917611244316733 -0.04731248524744372 0.047468656350655149 0.049475583737252221 -0.012602648230753896 -0.043502083221809935 -0.037817609954143634 -0.015394502524413144 -0.010009674647238479 0.037298625973119767 0.0070611797674548964 0.038190827507201396 -0.002872714777631423 -0.028897210507323138 -0.019412499540928652 -0.0042240364572020163 0.0023135394390156258 -0.035265611562622361 -0.0019922258247040926 0.0040700333215285102 -0.0043187226219404398 -0.0068989622202066574
leaf_weight=11982.613380104303 7788.5656954646111 2667609.5909555554 214253.34695735574 294319.25935086608 208621.71090650558 9876.6081785112619 18107.574864432216 29071.241251707077 6817.5297622382641 75991.515322297812 54183.878193125129 41890.120383262634 143995.16408112645 78989.171572461724 768056.38454557955 357733.18396773934 28679.220507368445 581955.51074834168 206895.11618040502 53960.597345352173 113898.41018201411 25300.988663941622 49203.124759405851 1849642.4041294008 384619.55221705139 97677.772689238191 160156.28942623734 104541.98533658683 277636.63589267433 110244.64656443894 17430.344207018614 118881.4516672194 244226.24216361344 27534.809332057834 31833.240519717336 71872.116439536214 224296.53355383873 61129.082764610648 6001.324594900012 159033.44593793154 95288.890371546149 491940.98592895269 402735.0176526159 1238161.8560588062 92251.340819448233 92980.773845911026 122417.95770667493 79457.112186148763 310588.34549878538 2522.9619432687759 19515.639127090573 11087.370642572641 5216.8772064596415 19298.022866740823 758894.86428563297 100040.5291595608 111157.52560973167 101142.51219062507 150197.19761100411 67048.082231268287 157310.91271525621 221556.0459997952
leaf_count=21519 9002 10260498 84535 921360 655837 11874 10123 14410 6660 255318 45116 107170 395501 206940 1704031 913996 64256 223633 486013 150990 309340 84345 44126 228582 189840 193784 386672 216800 1023601 269403 57273 399311 84711 84685 76974 140502 48685 137761 11470 583129 341678 1873328 114216 258780 230787 339219 423488 205478 744986 1709 34417 6819 11463 59450 2090466 218147 217488 337680 318112 126952 344016 505369
internal_value=3.85927e-07 -0.0256692 -0.00452653 -0.0393873 -0.0439011 -0.0257377 -0.0209011 0.0482266 -0.0461329 -0.0463257 0.044152 -0.0218801 -0.0281428 -0.00747192 -0.00700404 -0.00620734 -0.0089535 0.0449716 -0.0111379 -0.00889973 -0.0146125 -0.047354 0.0245293 0.0508032 0.0453456 -0.00449945 -0.00596369 -0.00596422 -0.0476245 -0.0144672 -0.0207373 -0.0317928 0.0431741 -0.037227 -0.00279519 -0.00342246 0.0464751 -0.0112101 0.01609 -0.0421698 -0.0479303 -0.0462749 0.0458332 0.0492944 -0.0158265 -0.0388347 -0.0402716 -0.0103681 -0.0111067 0.0141868 0.0120498 0.0303522 -0.0192344 -0.0193385 -0.0196477 -0.00136462 0.000681029 -0.033586 -0.00408071 -0.00374801 -0.00181178 -0.00491654
internal_weight=1.46467e+07 9.55883e+06 3.76151e+06 5.79732e+06 4.65959e+06 509893 1.13773e+06 5.08792e+06 4.1497e+06 4.13688e+06 1.97105e+06 1.11962e+06 488929 3.54726e+06 3.32912e+06 2.79896e+06 1.07325e+06 1.89202e+06 833376 475642 218132 3.71681e+06 79030.3 3.11688e+06 1.83783e+06 1.72571e+06 928213 311437 3.53248e+06 164205 161426 327503 628846 420068 797495 699818 1.20899e+06 530164 12818.9 184334 3.25484e+06 587230 984691 1.26723e+06 206150 291390 215399 451175 390045 29827.2 27304.2 20964 825300 820083 778193 239877 139837 128677 627945 596112 224359 371753
internal_count=29923824 28626597 8274851 20351746 17151714 1526615 3200032 1297227 15625099 15606969 795455 3189909 1507922 8190316 7628670 6333505 2537093 706201 2037202 1123206 561646 14166579 89254 501772 661085 3796412 2090703 702813 13499105 420393 452774 1055148 274551 1440390 1705709 1511925 386534 1295165 18130 667474 12475504 2215006 337849 273190 540127 1018025 762707 1088225 950464 45128 43419 18693 2268549 2257086 2149916 499891 281744 422365 1371423 1294449 470968 823481
is_linear=0
shrinkage=0.03


Tree=5
num_leaves=63
num_cat=0
split_feature=5 9 3 8 3 9 3 5 8 8 8 8 8 8 8 10 8 8 9 8 8 8 8 8 10 10 8 10 10 8 5 9 10 8 8 10 8 10 8 8 8 10 10 8 10 10 10 8 10 8 8 8 8 8 10 5 8 8 8 10 8 10
split_gain=1.90442e+07 2.92039e+06 566952 513108 169594 111894 70629.5 57314.1 44617.5 43758.7 33665.3 23140.3 13937.5 12407.3 11671.4 8895.34 9850.46 8593.94 8080.17 6788.16 5990.99 5755.23 9724.03 6227.61 18418 14451.3 9669.84 11174.8 6323.76 5387.59 5232.09 4919.4 9992.38 4833.5 4938.77 5803.77 7786.15 4655.58 7899.92 4597.26 9485.01 7344.94 6713.73 6958.6 6654.41 5998.34 4345.85 21467.9 5596.97 10707 7097.26 4329.16 4242.98 4141.54 4127.75 3970.4 3761.61 3745.54 4692.14 3584.9 3649.22 5184.9
threshold=1.0000000180025095e-35 4.5000000000000009 1.0000000180025095e-35 0.73721509932751383 1.0000000180025095e-35 5.5000000000000009 1.0000000180025095e-35 2.5000000000000004 -0.73284120334876357 0.44312301391210612 -0.57077231802681661 0.8511460603353429 -0.57077231802681661 -0.36648370705903521 0.94636490295939868 1.5000000000000002 -0.46039597980994923 0.29958852271690523 3.5000000000000004 0.19969739736768838 -0.44505783185115427 -0.048362832084465616 -0.30164489695395946 0.04621408538533487 2.5000000000000004 2.5000000000000004 1.0000000180025095e-35 4.5000000000000009 4.5000000000000009 -0.7444366621422277 5.5000000000000009 3.5000000000000004 5.5000000000000009 0.18281312110578132 0.097680735332368748 1.5000000000000002 0.1318557721318592 2.5000000000000004 0.75438814418115718 -0.099822328936730861 -0.15101602693478741 1.5000000000000002 5.5000000000000009 -0.23537842981696178 2.5000000000000004 4.5000000000000009 1.5000000000000002 -0.5129677127369543 4.5000000000000009 -0.5129677127369543 -0.49065906150552346 -0.065537083312030994 0.67644692717078936 0.75438814418115718 1.0000000180025095e-35 1.5000000000000002 -0.26867065956352881 0.63755505330306683 0.71353761266622884 3.5000000000000004 0.95691861501572195 1.5000000000000002
decision_type=2 2 2 2 2 2 2 2 2 2 2 2 2 2 2 2 2 2 2 2 2 2 2 2 2 2 2 2 2 2 2 2 2 2 2 2 2 2 2 2 2 2 2 2 2 2 2 2 2 2 2 2 2 2 2 2 2 2 2 2 2 2
left_child=1 2 13 4 5 8 11 10 -3 -7 29 37 -10 15 17 16 -1 19 -12 21 -17 22 -15 24 -23 33 28 -28 -26 -2 -9 -29 -33 34 -25 -36 -37 38 -5 40 41 56 -43 -44 -42 51 47 -14 49 -48 -50 -41 -11 -39 -53 -20 -24 -19 -59 60 61 -16
right_child=7 3 -4 6 -6 9 -8 30 12 52 18 -13 46 14 59 20 -18 57 55 -21 -22 23 39 25 26 -27 27 31 -30 -31 -32 32 -34 -35 35 36 -38 53 -40 45 44 42 43 -45 -46 -47 48 -49 50 -51 -52 54 -54 -55 -56 -57 -58 58 -60 -61 -62 -63
leaf_value=0.0099100683106777675 0.013768827797941063 -0.042387530801418702 0.04311525626672201 -0.014143378430336447 0.024241464680387906 -0.046669636574320161 0.038588053634591384 0.048090601003163272 -0.030917067294869288 -0.038923838620018553 0.045309328937264894 -0.01867511538203407 0.00038381321193132768 -0.0022384051623979746 -0.01019523462875575 -0.028969230913489404 -0.013443099908211931 -0.002817606847597682 0.039417198549801052 -0.013946712889664283 -0.014936908900960741 0.007649325702081225 -0.034983608801001494 -0.023144976896342807 -0.010075253639165685 -0.0018997712884364375 -0.019276766697675099 0.011904090234825108 -0.036134651345473334 0.029937766930336313 0.050601053847774538 -0.05735083891405314 0.0077118891702159277 -0.036205728446463692 -0.0024029362876422378 0.0054682712730341086 -0.039807521016628156 -0.043803077459427922 -0.035612869706749095 -0.030242323093238429 0.0049260882482934443 -0.0074974959573797925 -0.043924282905691107 -0.013029727654263381 -0.0099803478697315061 -0.0056272900776385623 -0.037485654711111642 -0.045499812204187501 -0.011470902916633358 -0.011490508745101153 -0.0455185555481145 -0.047081147812114754 -0.032666955047830536 -0.023863918949291126 -0.0094344221145850286 0.044137350023874179 -0.017585495015431205 -0.01045691059853047 -0.0048113796502487621 -0.0080738447317444794 -0.011978368451554132 -0.035937768314941214
leaf_weight=24392.568352878094 29811.183840990067 279484.34496182203 213253.2299927175 17859.714741200209 33716.616821065545 3300168.4213640839 18038.085613980889 1260091.7115302235 326688.79987075925 407268.42158830166 1202979.8525951654 824528.38002982736 33142.134314030409 146120.33906179667 13810.597078919411 36662.062680855393 48726.664033845067 651331.92762711644 420726.84299126267 147568.89648583531 108218.94476377964 111100.56013555825 13958.090718701482 35187.444087490439 16602.399242132902 150005.64701189101 25094.275508716702 31487.647494986653 16926.206549972296 49100.836478456855 1838144.9250411242 3064.5489146113396 6919.4265813529491 10229.021102428436 38060.647257909179 5192.8597863912582 10001.59354442358 9990.416348606348 113249.39451830089 31979.52331456542 56520.026557609439 172472.09538142383 9595.3032187819481 20753.506999418139 51520.565861195326 26509.596179634333 43958.957582607865 12690.728581145406 44050.236671328545 21109.35523442924 6297.2344391196966 2958.7483208030462 128333.63404887915 152584.89628566802 22930.241074293852 259419.16866508126 56313.292026177049 160122.88210603595 767995.27046851814 231342.15926587582 270474.554647699 14369.595107868314
leaf_count=41663 45128 1029966 84535 47745 36823 12710602 10123 273190 1055148 1444036 386534 2268549 68347 309959 33320 113748 123705 1395750 225441 378689 282530 195624 46128 101102 39804 318332 68334 51159 56146 44126 228582 12284 12284 33808 82108 9917 34279 36487 383219 99961 105458 401855 35082 52508 123430 60685 149413 47548 110833 53315 23318 10731 422365 453909 55405 94226 151980 386672 1704031 543571 671199 47075
internal_value=6.89105e-07 -0.0249683 -0.00439263 -0.0383683 -0.0427956 -0.0432866 -0.0203008 0.0470392 -0.0328296 -0.0453787 0.0430271 -0.0212508 -0.0273549 -0.00724931 -0.00679519 -0.0141829 -0.00565242 -0.00602209 0.0438315 -0.0079144 -0.018488 -0.00708361 -0.00899009 -0.00454798 -0.000759694 -0.00776524 -0.0100934 -0.00347547 -0.0232316 0.0238298 0.04958 0.00608598 -0.0122623 -0.0166821 -0.0144236 -0.00866073 -0.0243345 -0.028482 -0.0326884 -0.0111094 -0.00970655 -0.0126833 -0.0097872 -0.0227988 -0.00218224 -0.0174457 -0.0201377 -0.0123216 -0.0232413 -0.0290527 -0.0157303 -0.0228594 -0.0374247 -0.0250895 -0.0137387 0.0412176 -0.0210418 -0.00456154 -0.00578538 -0.0108773 -0.0130489 -0.0233227
internal_weight=1.45932e+07 9.53293e+06 3.75977e+06 5.77316e+06 4.63691e+06 4.60319e+06 1.13625e+06 5.06027e+06 767422 3.83577e+06 1.96204e+06 1.11821e+06 487937 3.54652e+06 3.32852e+06 218000 73119.2 2.79852e+06 1.88313e+06 1.21907e+06 144881 1.0715e+06 611631 459872 211195 248677 100095 66565.9 33528.6 78912 3.09824e+06 41471.6 9983.98 98671.6 88442.5 53255.1 15194.5 293684 131109 465511 381133 273092 202821 30348.8 108041 84378.1 161249 45832.9 115416 65068.3 50347.5 57868.5 535602 162575 25889 680146 70271.4 1.57945e+06 928118 529997 298655 28180.2
internal_count=29923824 28626597 8274851 20351746 17151714 17114891 3200032 1297227 2537888 14577003 795455 3189909 1507922 8190316 7628670 561646 165368 6333505 706201 2847052 396278 2468363 1453182 1015181 435635 579546 240011 144061 95950 89254 501772 75727 24568 261214 227406 126304 44196 921360 430964 1143223 916441 687553 489445 87590 228888 226782 452774 115895 336879 202728 134151 166097 1866401 490396 66136 319667 198108 3486453 2090703 1295165 751594 80395
is_linear=0
shrinkage=0.03


Tree=6
num_leaves=63
num_cat=0
split_feature=6 9 9 6 7 7 9 9 6 7 7 7 7 7 7 7 7 9 7 7 9 6 0 7 7 7 7 6 7 7 9 6 6 7 7 7 7 7 7 9 7 7 7 7 7 7 7 7 7 9 7 7 7 9 7 7 7 7 7 7 7 7
split_gain=2.32814e+07 1.17282e+06 299238 117532 68592.5 50541.6 43923.7 34041.7 13740.6 13302.4 13319.3 8775.95 12833 8402.56 7149.76 6479.94 4916.14 4202.91 8517.39 4484.43 3766.43 3623.59 3518.11 3236.54 3218.06 3187.5 2881.32 2584.72 2484.48 2474.07 2387.81 2205.33 2118.81 2103.34 1835.26 1677.48 1646.78 1574.21 1844.79 1510.95 1608.98 1485.96 1863.84 1440.52 1430.4 1408.99 1300.55 1830.3 1487.3 1280.25 4162.88 1278.87 1269.31 1268.94 1250.91 1247.13 1196.54 6310.59 5902.33 5626.22 4494.93 2191.29
threshold=1.0000000180025095e-35 4.5000000000000009 10.500000000000002 2.5000000000000004 0.67167992559793654 -0.54220184589352438 4.5000000000000009 10.500000000000002 5.5000000000000009 0.99865421017599998 0.95242846126021108 0.67167992559793654 -0.36647417525074694 0.98802474685579866 -0.72696319516528884 0.99374995976406788 0.81925054981890411 3.5000000000000004 0.93544191479114935 0.878110924644389 3.5000000000000004 1.5000000000000002 1.0000000180025095e-35 0.99966190462023474 0.15101559051660998 0.99700008544936913 0.21862473630160603 1.5000000000000002 0.82899317702918729 0.81925054981890411 3.5000000000000004 1.5000000000000002 1.5000000000000002 0.06553689391773225 0.57077594689671507 0.90892735371523092 0.86548282553247169 0.099822040462190967 0.15101559051660998 3.5000000000000004 0.25206111083856975 -0.51297808981038739 -0.40614700388750385 0.58481550752069722 0.73283908552571653 -0.66528616069191593 -0.82415615971448097 -0.84315017450793706 -0.78856175031405207 10.500000000000002 0.81925054981890411 -0.76694339346796603 -0.27694604220087021 3.5000000000000004 0.048362692321690152 -0.56368474752277564 0.61237135649459018 0.57077594689671507 0.77788564761185042 0.54940630780725741 0.85673801594079257 0.41398981800788198
decision_type=2 2 2 2 2 2 2 2 2 2 2 2 2 2 2 2 2 2 2 2 2 2 2 2 2 2 2 2 2 2 2 2 2 2 2 2 2 2 2 2 2 2 2 2 2 2 2 2 2 2 2 2 2 2 2 2 2 2 2 2 2 2
left_child=1 9 4 6 24 14 21 11 20 10 17 12 31 -12 46 30 44 33 19 -19 -5 39 53 -11 55 -17 -26 45 -18 -13 -15 -8 -14 -1 -28 -21 -30 -35 -39 40 -2 -7 -43 -36 -6 -9 47 -4 -48 50 54 -50 -44 -10 -22 -3 57 59 -58 61 -60 -40
right_child=3 2 5 8 16 41 7 27 22 23 13 29 32 15 -16 25 28 18 -20 35 49 -23 -24 -25 26 -27 34 -29 36 -31 -32 -33 -34 37 43 -37 -38 38 56 -41 -42 42 52 -45 -46 -47 48 -49 51 -51 -52 -53 -54 -55 -56 -57 58 -59 60 -61 -62 -63
leaf_value=-0.020658734887348668 0.036037984468697319 -0.045845642259170823 -0.04005174324356605 0.046247702531716194 -0.032848144534752398 -0.028549981053044366 0.019790979580234229 0.027618854546978662 0.048266916388087534 -0.0051393542083020514 -0.023709543489524594 0.022727205510189419 -0.0022035038884727939 -0.017953604182191576 -0.031957311707929474 -0.024895658208810151 -0.020322323485998932 -0.002592913239431012 -0.011740054946809048 -0.02649857070492161 0.039976791318161904 0.042933725583684662 0.04976859115444595 -0.013226836389303664 -0.039150555346104135 -0.01651666329303238 -0.045743824548064346 0.041254097958036196 -0.029043370131217539 0.03272176724065777 -0.0095409028477079806 0.032723634467270959 0.01275376074164959 -0.010394221275537956 -0.035265414045622563 -0.021033837452960405 -0.039653349505098426 -0.020277485040718229 -0.016075986206932919 0.03737074385951103 0.041126886995016806 -0.020633098580340417 -0.026206659262147748 -0.043228417820384918 -0.037094483377224277 0.03607298998637018 -0.042449991068994962 -0.031458831515948416 -0.033643070434219602 0.0452533828481105 0.043414932174140039 -0.039968084376806989 -0.023173938710188916 0.046361078478992991 0.030782038037682636 -0.047175328519139428 -0.01954518271767744 -0.0066131453014469047 -0.010744393541386475 -0.025983951538914318 -0.016438577673954815 -0.012395153688372608
leaf_weight=71346.922631457448 63544.961335301399 1913293.9081293344 39953.865769967437 878449.90967568755 119548.66829013824 51750.446933567524 38412.453008070588 20377.364312782884 1064944.9204760045 94627.92966876924 411811.75995367765 49224.720185428858 30928.611014157534 45288.997007191181 353379.99925982952 90932.004810974002 26770.823514744639 9509.4881455898285 90639.525033250451 97814.263408377767 22084.982171833515 559542.25530593097 1459338.2057633847 84132.688471093774 93573.644637703896 74231.183843404055 478469.1957090646 94626.906177788973 95398.872081175447 40767.86186543107 92169.683862179518 17179.73075298965 11765.333996787667 54725.024868234992 23678.488717868924 104733.07514639199 15286.076560020447 71579.870386332273 398116.26545664668 184470.47568175197 470861.557060197 180488.68893130124 181238.48493926227 151463.44636662304 177749.6773365587 138368.7860853076 90695.136259675026 50614.58580006659 49244.853784650564 149802.44597651064 277271.04335922003 69430.202575564384 395509.82888311148 447561.63834272325 33640.741239011288 953125.97211685777 294563.44500102103 81649.26297134161 203137.22408619523 42702.530365243554 323460.06753800809 229515.11338329315
leaf_count=201232 41625 7435703 145200 229758 398963 164961 50348 20529 187378 210523 1207771 59108 66129 122730 1166784 270192 75994 20116 222945 298432 11494 223777 170021 211259 340572 197639 1855898 44786 300831 33048 220070 14408 19031 133834 82542 296888 54981 199882 1050139 115010 228817 514733 551425 571597 622011 93742 337341 169362 168516 44707 101088 252060 1161368 109852 29025 3749699 809435 188890 495251 126046 851634 574694
internal_value=1.02802e-06 -0.0320872 -0.0402745 0.0449401 -0.0444761 -0.0286427 0.0383051 0.0301486 0.0475739 -0.0168792 -0.0173879 0.0204864 0.0142884 -0.0209205 -0.034849 -0.017125 -0.0332177 -0.0161707 -0.0194376 -0.0227277 0.0450775 0.0411229 0.0487173 -0.00894575 -0.0458305 -0.0211299 -0.0440763 0.0373283 -0.0285253 0.0272552 -0.0123128 0.0237881 0.00191846 -0.0156122 -0.0447814 -0.023673 -0.030509 -0.0154003 -0.0155669 0.0397133 0.0405219 -0.0236305 -0.0232943 -0.0421521 -0.0353871 0.034988 -0.0382558 -0.03525 -0.0395559 0.0429481 0.0419109 -0.0373438 -0.024127 0.047703 0.0344268 -0.0462878 -0.0153525 -0.0144878 -0.0161444 -0.0154469 -0.0142421 -0.01473
internal_weight=1.45305e+07 8.47735e+06 5.51066e+06 6.05316e+06 4.04836e+06 1.46231e+06 1.72007e+06 441652 4.33309e+06 2.96669e+06 2.78793e+06 188279 98286.1 714434 653319 302622 434754 2.07349e+06 302696 212057 1.36125e+06 1.27842e+06 2.97184e+06 178761 3.6136e+06 165163 747185 253373 137456 89992.6 137459 55592.2 42693.9 1.7708e+06 653611 202547 110685 1.69945e+06 1.64472e+06 718877 534407 808987 757237 175142 297298 158746 299939 90568.5 209370 482799 332997 118675 576748 1.51251e+06 55725.7 2.86642e+06 1.57314e+06 751983 821161 670334 526597 627631
internal_count=29923824 28030143 20120541 1893681 15488791 4631750 1010358 401129 883323 7909602 7487820 242072 149916 2018402 2239263 810631 1452780 5469418 838381 615436 416072 609229 467251 421782 14036011 467831 2850609 159057 431806 92156 342800 64756 85160 4631037 2510037 595320 355812 4429805 4295971 385452 270442 2392487 2227526 654139 1020974 114271 1072479 314562 757917 186314 141607 420576 1712793 297230 40519 11185402 4096089 1939769 2156320 1750879 1346885 1624833
is_linear=0
shrinkage=0.03


Tree=7
num_leaves=63
num_cat=0
split_feature=6 9 9 6 9 9 9 9 6 6 10 9 10 9 9 6 0 6 9 9 10 10 4 9 10 9 10 9 9 2 2 9 4 2 9 4 9 9 6 10 10 9 0 9 6 9 9 10 10 9 10 10 10 6 10 10 2 3 9 10 10 10
split_gain=2.20329e+07 1.12227e+06 288664 114730 51322.9 42103.2 37748.1 32418.1 13588.8 6296.39 6021.39 5813.59 4480.89 5229.9 4056.09 3532.91 2866.78 2490.18 2085.04 5680.53 1856.19 1657.66 1476.57 1453.14 1303.08 1290.21 1639.94 1127.49 3371.26 1097.83 1036.02 999.163 963.886 907.814 902.921 996.284 875.311 1240.65 822.282 801.742 772.06 701.384 598.958 593.569 580.885 577.12 575.84 547.643 537.328 532.792 515.915 1091.49 496.106 487.239 486.911 927.217 478.991 459.341 458.228 431.382 423.246 640.605
threshold=1.0000000180025095e-35 4.5000000000000009 10.500000000000002 2.5000000000000004 5.5000000000000009 4.5000000000000009 11.500000000000002 10.500000000000002 6.5000000000000009 1.5000000000000002 3.5000000000000004 2.5000000000000004 1.5000000000000002 3.5000000000000004 3.5000000000000004 1.5000000000000002 1.0000000180025095e-35 1.5000000000000002 5.5000000000000009 7.5000000000000009 4.5000000000000009 2.5000000000000004 1.0000000180025095e-35 3.5000000000000004 1.0000000180025095e-35 3.5000000000000004 3.5000000000000004 10.500000000000002 4.5000000000000009 1.0000000180025095e-35 1.0000000180025095e-35 3.5000000000000004 1.0000000180025095e-35 1.0000000180025095e-35 3.5000000000000004 1.0000000180025095e-35 6.5000000000000009 9.5000000000000018 4.5000000000000009 5.5000000000000009 5.5000000000000009 6.5000000000000009 1.0000000180025095e-35 1.5000000000000002 13.500000000000002 7.5000000000000009 5.5000000000000009 3.5000000000000004 1.0000000180025095e-35 11.500000000000002 3.5000000000000004 1.5000000000000002 1.0000000180025095e-35 3.5000000000000004 3.5000000000000004 5.5000000000000009 1.0000000180025095e-35 1.0000000180025095e-35 11.500000000000002 1.0000000180025095e-35 4.5000000000000009 1.5000000000000002
decision_type=2 2 2 2 2 2 2 2 2 2 2 2 2 2 2 2 2 2 2 2 2 2 2 2 2 2 2 2 2 2 2 2 2 2 2 2 2 2 2 2 2 2 2 2 2 2 2 2 2 2 2 2 2 2 2 2 2 2 2 2 2 2
left_child=1 11 4 5 20 15 10 9 14 18 -4 24 13 59 38 23 34 29 42 41 -3 -8 27 33 -1 26 -14 28 -16 49 -21 -17 45 43 -10 -36 52 -38 -5 47 -12 60 56 -2 -18 46 -11 -23 -39 -9 51 -26 -6 -24 -27 -56 -7 -25 -31 -13 61 -20
right_child=3 2 6 8 36 7 21 17 16 32 40 12 25 -15 22 31 44 -19 19 30 -22 39 53 57 50 54 -28 -29 -30 58 -32 -33 -34 -35 35 -37 37 48 -40 -41 -42 -43 -44 -45 -46 -47 -48 -49 -50 -51 -52 -53 -54 -55 55 -57 -58 -59 -60 -61 -62 -63
leaf_value=-0.017260010073925528 0.038274312414208304 -0.037045409434201454 -0.035028338477454964 0.044752365856772489 -0.046111915970433001 0.01933100154040562 -0.021288564523869756 0.03201652293557334 0.04733509468910526 0.024813229178525509 -0.028594462584790103 -0.01745901793310925 -0.019791547233853266 -0.012344285454575946 0.041994153620222741 0.042601554401456306 0.047978470916812482 0.040215605183791116 -0.01361678145579936 0.019999898934153014 -0.033630141000789988 -0.023211558557332913 0.041986423573515529 0.036784527222286388 -0.013538416306238945 -0.018658454112590577 -0.016271847871315498 0.043921209493885095 0.033323826192800929 0.010524644445133674 -0.0044115195825885495 0.039631052451102405 0.033195946400837915 0.034302972130121685 0.043735090041884264 0.046869688772151835 -0.045625698388934592 -0.042088835460001715 0.046437349893698153 -0.021946836416665959 -0.03172965811557632 0.0053082517160677016 0.029781644108038439 0.040490579135235107 0.04927361412552695 0.031228623003393789 0.013614604464478109 -0.025893940467171892 -0.044487729050826735 0.035846442549573192 -0.014062472264677927 -0.016188788297643891 -0.043693464250003422 0.04459856643988673 -0.021601416931255665 -0.018283176965979704 0.0080653402894651418 0.030633704539633568 0.027292557567265448 -0.02028410173439401 -0.015625513890037239 0.0036743511095616902
leaf_weight=203190.26815271378 160020.91015057266 497761.34559926391 412772.06499256194 629816.25885795057 88735.751000896096 60189.758704781532 305929.11045965552 48263.971083477139 918669.6125280112 29388.675531819463 224656.60593442619 97088.569443568587 195364.30900116265 254372.27672801912 144265.67182569206 421643.5361097604 493184.15192866325 94165.28725156188 3003.1984902024269 33789.545062273741 201338.43547235429 103891.92672474682 93987.337259635329 172042.47343938053 212635.62717685103 225026.5178899616 305577.14995497465 73230.03652150929 56084.261053904891 1971.4523917287588 1640.0912085175514 134787.61670559645 19068.752975285053 28796.079721659422 154462.75437307358 224440.75671361387 1986962.6932796836 98792.030180707574 447107.76278591156 105330.44341096282 103374.65648950636 8747.6907092630863 4713.0302124023438 343150.72249764204 858708.55941689014 10690.760459169745 4815.0071314871311 202015.95596243441 580239.82314835489 102232.20170225203 627885.01483392715 408913.76074321568 566244.05656695366 206464.16178634763 220904.20625267923 115484.82769118249 3602.9282210618258 11713.885139465332 5756.786083728075 97728.57631316781 3013.548106521368 5383.5020410567522
leaf_count=546362 88222 1770972 1434875 176352 351046 79523 888163 39036 157063 32365 728194 263413 544751 642152 56909 158797 70087 44786 7569 43406 691715 308180 34465 106085 545493 621037 812853 23975 41540 2861 3270 64980 14311 18230 48079 40872 7842902 377033 94846 308151 346939 16336 4088 163990 82772 9466 7696 617248 2261592 67294 1621591 1085077 2193531 56363 633704 319010 5772 8925 5080 274159 7781 10489
internal_value=1.4032e-06 -0.0312567 -0.0393027 0.0438875 -0.04345 0.0373208 -0.0278674 0.0293263 0.0465026 0.0198969 -0.032617 -0.0163869 -0.0176894 -0.0151773 0.044366 0.0400886 0.0478339 0.0363517 0.0159552 0.0116372 -0.0360619 -0.0229612 0.0423287 0.0386942 -0.0150316 -0.0187516 -0.0176446 0.0407329 0.0395672 0.034052 0.0188697 0.0418821 0.0275429 0.0394891 0.0468261 0.045592 -0.0450053 -0.045247 0.045452 -0.0242054 -0.0295826 -0.00108113 0.0194581 0.0397858 0.0488012 0.025141 0.0232373 -0.024983 -0.0441388 0.0346184 -0.0146692 -0.0152821 -0.0440212 0.0437816 -0.0197393 -0.0204623 0.0186949 0.0363926 0.0230174 -0.0188763 -0.00598415 -0.00251797
internal_weight=1.44552e+07 8.44222e+06 5.47804e+06 6.01301e+06 4.02007e+06 1.71259e+06 1.45797e+06 440436 4.30042e+06 188046 740803 2.96417e+06 1.51155e+06 449189 1.65096e+06 1.27216e+06 2.64947e+06 252390 124083 55577.6 699100 717167 574031 715724 1.45262e+06 1.06236e+06 500941 273580 200350 158224 35429.6 556431 63963.2 531968 1.29757e+06 378904 3.32097e+06 2.66599e+06 1.07692e+06 411238 328031 20147.9 68505.7 503172 1.35189e+06 44894.4 34203.7 305908 679032 150496 1.24943e+06 621549 654980 300451 561416 336389 63792.7 183756 7728.24 194817 11400.2 8386.7
internal_count=29923824 28030143 20120541 1893681 15488791 1010358 4631750 401129 883323 242072 2510008 7909602 4111079 1179724 484450 609229 398873 159057 178234 88851 2462687 2121742 213252 385452 3798523 2931355 1357604 122424 98449 114271 46676 223777 63838 270442 246014 88951 13026104 10481527 271198 1233579 1075133 42175 89383 252212 152859 49527 40061 925428 2638625 106330 3252161 1630570 2544577 90828 1573751 952714 85295 115010 7941 537572 25839 18058
is_linear=0
shrinkage=0.03


Tree=8
num_leaves=63
num_cat=0
split_feature=4 9 8 3 2 7 3 2 3 3 8 2 2 7 8 7 7 4 8 7 2 7 7 10 7 8 10 8 10 7 10 7 8 10 8 7 10 8 10 10 9 10 10 10 7 10 10 7 7 10 7 7 7 10 7 7 7 7 7 7 10 10
split_gain=1.05241e+07 4.7081e+06 764702 715912 497612 301101 115766 83126.4 78622.1 71728.2 48692 42606.3 32255.9 27875 21003.4 25509.2 18247.6 16634.1 11611.9 8261.79 7025.56 7012.55 6534.79 7926.68 10064.4 7635.53 7184.27 6400.67 11836.5 6004.06 5499.68 9012.94 5479.91 5477.59 7864.56 5382.59 5080.87 5058.71 5020.36 17448.5 5389.58 9436.65 4885.15 4622.72 4523.4 6237.42 10902.6 14940.5 8284.5 4508.85 8042.86 5159.87 18131.7 4867.07 9140.45 5623.96 10656.5 12940 4383.69 6029.21 15412.9 6755.85
threshold=1.0000000180025095e-35 4.5000000000000009 0.73721509932751383 1.0000000180025095e-35 1.0000000180025095e-35 0.67167992559793654 1.0000000180025095e-35 1.0000000180025095e-35 1.0000000180025095e-35 1.0000000180025095e-35 0.51113019672828186 1.0000000180025095e-35 1.0000000180025095e-35 -0.51297808981038739 -0.15101602693478741 0.3342611484689354 0.81925054981890411 2.5000000000000004 -0.57782411410281842 0.93845596220871974 1.0000000180025095e-35 0.57077594689671507 0.99818282439137029 1.5000000000000002 0.99939377080793557 -0.099822328936730861 1.5000000000000002 -0.065537083312030994 4.5000000000000009 0.77788564761185042 2.5000000000000004 -0.65234524191686594 1.0000000180025095e-35 3.5000000000000004 0.029024409397335523 -0.65234524191686594 3.5000000000000004 0.33222858587828868 4.5000000000000009 3.5000000000000004 3.5000000000000004 5.5000000000000009 2.5000000000000004 3.5000000000000004 0.86548282553247169 4.5000000000000009 1.5000000000000002 0.85673801594079257 0.85673801594079257 1.5000000000000002 0.99552231814189451 0.98372640911059162 0.97696484778429815 5.5000000000000009 0.94425825643485939 0.99700008544936913 0.99374995976406788 0.9916835347852474 0.878110924644389 0.90892735371523092 1.0000000180025095e-35 5.5000000000000009
decision_type=2 2 2 2 2 2 2 2 2 2 2 2 2 2 2 2 2 2 2 2 2 2 2 2 2 2 2 2 2 2 2 2 2 2 2 2 2 2 2 2 2 2 2 2 2 2 2 2 2 2 2 2 2 2 2 2 2 2 2 2 2 2
left_child=1 3 5 4 14 9 7 13 11 10 12 16 21 30 58 36 -7 18 -2 29 -12 37 25 -24 33 26 -21 28 -27 -17 31 -4 43 34 42 -32 -16 -3 39 -34 -40 -42 -25 -26 45 46 47 -18 -48 50 51 52 -29 -51 -55 56 57 -56 -1 60 -60 -62
right_child=17 2 6 -5 -6 8 -8 -9 -10 -11 20 -13 -14 -15 15 19 44 -19 -20 22 -22 -23 23 24 32 27 -28 49 -30 -31 35 -33 38 -35 -36 -37 -38 -39 40 -41 41 -43 -44 -45 -46 -47 48 -49 -50 53 -52 -53 -54 54 55 -57 -58 -59 59 -61 61 -63
leaf_value=0.012440931410578915 0.027893700019500055 -0.043195243463382091 -0.0079584720839805129 0.042638931823237629 0.040982591689104925 -0.025819238019835627 0.040356442461171815 0.036584377820237504 0.029427954455402926 0.019966483777906548 -0.03196762791820755 0.028123573424189096 0.012987100599682208 -0.012088848495039691 -0.0063671212609360357 0.0027609065725815603 0.0033626220482501699 0.047275410123807503 0.043526671774180549 0.013762611434764352 0.021821288023779545 -0.036865463409803241 0.011619383437798321 0.019436303641117571 -0.0028612311335201755 -0.022609646964301559 -0.00039294377028007587 -0.00077679011558346887 0.0036841372192981362 0.0063187470615184123 -0.040341012986294993 -0.030183254598442979 0.0041750895851464407 0.014819258710416582 -0.014403590945190663 -0.017659659817999839 -0.00081132032867571482 -0.038948398055521007 0.01561060878398284 -0.055016936450720026 -0.05494130643885551 0.0084275129587121633 -0.01752079622454622 -0.025228974937501595 -0.028091710874741358 -0.0035520226685416393 -0.030792762352269857 -0.047220745149771162 -0.0070334755163243357 0.002124707979415641 -0.021043212498908018 0.0057010849104084027 -0.038414226745339966 -0.057126281330405676 -0.0099487716853651556 0.01908852511063534 -0.043021701932172959 0.027332742606310731 0.010371775027451516 -0.002930024632536222 -0.019739467257141239 -0.0020384376562021999
leaf_weight=14473.678105145693 43845.42887185514 3188942.9951420873 19110.031184017658 461853.59576673806 296131.01399387419 339531.2984584868 36927.8926320225 29067.356408551335 30282.745905339718 17273.844982981682 423414.22689725459 15880.185529366136 9434.2994155883789 899591.74715833366 334378.9375308007 1111935.3648799956 34837.083611667156 1721002.2582217008 1744251.7578881681 58480.505995869637 2196.0571068078279 185149.0607253015 97270.874026194215 16960.675208225846 14586.300124704838 35265.713108092546 71987.527780368924 72824.461765408516 27363.467926114798 692912.02435202897 9999.0133805125952 116817.47242683172 17710.428322389722 49222.133609652519 18550.50142171979 161686.42477457225 265993.46272920072 274270.90925127268 22214.435965046287 5999.5407773256302 3045.1782690882683 6917.9106540977955 3972.127323076129 19344.074399083853 18066.788066551089 50421.836841240525 46392.071700438857 6187.8102920502424 18466.708770424128 341436.43548496068 24746.819773808122 46040.067184463143 13683.405400529504 3063.3397136330605 44592.406917139888 8238.5117656588554 6698.5288523286581 10316.630543172359 26410.394854649901 581025.61052343249 77493.635055497289 25889.079902201891
leaf_count=22365 39501 12501149 48194 141806 106816 1070404 14718 15164 24516 20495 1447227 13274 13408 2301787 766169 2147921 69395 229371 484181 88681 2294 673898 156600 22544 30467 102374 147325 150495 53163 1242574 36574 385810 33570 73130 47052 458154 555363 1026227 32247 23864 12284 12284 10419 57540 58417 113697 151128 24241 44208 674032 69928 84808 47010 12284 106757 11198 23826 11034 44306 1259810 218010 56336
internal_value=1.85448e-06 -0.0145889 -0.0325892 0.00708119 0.00340493 -0.038218 -0.011984 -0.0135475 -0.0175851 -0.041036 -0.041294 -0.0202725 -0.0424115 -0.0147546 0.000737022 0.00171372 -0.021768 0.0451699 0.0431434 0.0028994 -0.03169 -0.0425548 0.00077037 0.00472925 0.000975005 -0.000657357 0.00595212 -0.00201693 -0.0111216 0.00412683 -0.0225504 -0.0270588 -0.00610377 0.00814258 -0.000181042 -0.0189809 -0.00390565 -0.0428589 -0.000329833 -0.0108043 0.0073883 -0.0109442 0.0124228 -0.0156138 -0.0138796 -0.0122366 -0.0163721 -0.00426779 -0.0240282 -0.00101939 -0.00534368 -0.00241241 -0.00673051 0.000622213 -0.0064139 -0.0041889 -0.007302 -0.00294368 -0.00390309 -0.00423591 -0.0100817 -0.0153069
internal_weight=1.43721e+07 1.0863e+07 5.93395e+06 4.92903e+06 4.46718e+06 4.66075e+06 1.2732e+06 1.23627e+06 560067 4.10068e+06 4.08341e+06 529784 3.6578e+06 1.2072e+06 4.17104e+06 3.44575e+06 513904 3.5091e+06 1.7881e+06 2.84538e+06 425610 3.64836e+06 1.04053e+06 275794 178523 764738 130468 634270 62629.2 1.80485e+06 307613 135928 89817.9 88705.4 39483.3 171685 600372 3.46321e+06 55887.5 23710 32177.5 9963.09 20932.8 33930.4 174372 156306 105884 41024.9 64858.8 571641 157295 132548 86507.9 414346 72909.4 69846.1 61607.6 54909 725292 710819 129793 103383
internal_count=29923824 29170771 20514379 8656392 8514586 17253978 3260401 3245683 1569280 15684698 15664203 1544764 14214682 3230519 8407770 6806943 1531490 753053 523682 5485411 1449521 14201274 2094916 512001 355401 1582915 236006 1346909 155537 3390495 928732 434004 202256 153145 80015 494728 1321532 13527376 114249 57434 56815 24568 32963 88007 461086 402669 288972 93636 195336 1191372 352241 282313 197505 839131 165099 152815 141617 117791 1600827 1578462 318652 274346
is_linear=0
shrinkage=0.03


Tree=9
num_leaves=63
num_cat=0
split_feature=4 9 8 3 2 7 3 2 3 3 8 2 2 7 8 7 7 4 8 7 7 2 7 10 7 8 10 8 10 7 10 7 8 10 8 7 8 7 10 10 10 9 10 10 10 7 10 10 8 10 7 7 10 10 7 7 10 7 7 7 10 7
split_gain=9.98463e+06 4.46233e+06 732434 680903 472533 289327 109447 78519.4 74214.2 68192.3 47385.9 40211.1 30732.3 26431.6 19765.6 24004.9 17313.4 16376.9 11287.6 7772.14 6852.12 6645.2 6152.02 7458.84 9476.68 7186.28 6764.57 6028.33 11157.6 5651.2 5231.85 8555.93 5159.48 5157.24 7402.88 5126.92 4937.62 4883.64 5430.1 4728.96 16499.6 5075.68 8934.02 4599.36 4380.05 5295.72 6645.12 4361.49 4305.59 8770.74 4293.91 4287.01 5892.45 10297.2 14165 7956.7 4244.53 7578.53 4856.79 17119.4 4581.95 8638.25
threshold=1.0000000180025095e-35 4.5000000000000009 0.73721509932751383 1.0000000180025095e-35 1.0000000180025095e-35 0.67167992559793654 1.0000000180025095e-35 1.0000000180025095e-35 1.0000000180025095e-35 1.0000000180025095e-35 0.51113019672828186 1.0000000180025095e-35 1.0000000180025095e-35 -0.51297808981038739 -0.15101602693478741 0.3342611484689354 0.81925054981890411 2.5000000000000004 -0.57782411410281842 0.93845596220871974 0.57077594689671507 1.0000000180025095e-35 0.99818282439137029 1.5000000000000002 0.99939377080793557 -0.099822328936730861 1.5000000000000002 -0.065537083312030994 4.5000000000000009 0.77788564761185042 2.5000000000000004 -0.65234524191686594 1.0000000180025095e-35 3.5000000000000004 0.029024409397335523 -0.65234524191686594 0.33222858587828868 0.06553689391773225 5.5000000000000009 4.5000000000000009 3.5000000000000004 3.5000000000000004 5.5000000000000009 2.5000000000000004 3.5000000000000004 0.30164402523644185 1.5000000000000002 3.5000000000000004 0.029024409397335523 5.5000000000000009 -0.72696319516528884 0.86548282553247169 4.5000000000000009 1.5000000000000002 0.85673801594079257 0.84313847884979054 1.5000000000000002 0.99552231814189451 0.98372640911059162 0.97696484778429815 5.5000000000000009 0.94425825643485939
decision_type=2 2 2 2 2 2 2 2 2 2 2 2 2 2 2 2 2 2 2 2 2 2 2 2 2 2 2 2 2 2 2 2 2 2 2 2 2 2 2 2 2 2 2 2 2 2 2 2 2 2 2 2 2 2 2 2 2 2 2 2 2 2
left_child=1 3 5 4 14 9 7 13 11 10 12 16 20 30 -1 37 -7 18 -2 29 36 -12 25 -24 33 26 -21 28 -27 -17 31 -4 47 34 43 -32 -3 38 -16 40 -34 -41 -43 -25 45 -39 -47 -26 49 -35 -20 52 53 54 -18 -55 57 58 59 -29 -58 -62
right_child=17 2 6 -5 -6 8 -8 -9 -10 -11 21 -13 -14 -15 15 19 51 -19 50 22 -22 -23 23 24 32 27 -28 56 -30 -31 35 -33 39 48 -36 -37 -38 44 -40 41 -42 42 -44 -45 -46 46 -48 -49 -50 -51 -52 -53 -54 55 -56 -57 60 -59 -60 -61 61 -63
leaf_value=-0.00378675398219779 0.027152346571804854 -0.042272564996241886 -0.0077261051323708136 0.041716134766244722 0.040082762300733675 -0.025126560394881953 0.039445359730725313 0.035732988930489158 0.028672742236416762 0.019409630583544498 -0.031161854699572434 0.027405011182201223 0.012614680918284703 -0.01173502136711835 -0.0075010158772292508 0.0026781482539941616 0.0032613728805192337 0.046331797038532331 0.030946183572918156 0.013356626311935979 -0.035994650678389445 0.021240954680567952 0.011273961098328735 0.018866398148961794 -0.0027752272508427445 -0.021962751832818865 -0.0003811552606267353 -0.00075348595938044274 0.0035735038491314947 0.0061300193000125448 -0.039358075435432856 -0.02939358339496978 0.0040499195470274372 0.015144003132237837 -0.013975059259277913 -0.017161249266078787 -0.038061271092988465 -0.0037608268459773395 -0.029955613076459262 0.015152117399473912 -0.053604498887935566 -0.053607275475002922 0.0081738114156520124 -0.016997918938656913 0.00036957251831311609 -0.0033461962563315658 -0.031293085102945442 -0.024508166936982233 0.018838366431207548 -0.046517630191267055 0.042785092266590545 -0.027345981817300597 -0.0034460275017837742 -0.041522566545780917 -0.046143470973765234 -0.01726823009260375 0.0020609680898448848 -0.020434773039495216 0.0055303449652659587 -0.037368622768358388 -0.055619420168768939 -0.004065776214912626
leaf_weight=725155.45427113771 43693.610849797726 3161209.6944751889 19094.503393530846 457966.76473689079 293731.8336032331 338441.16858044267 36651.597555160522 28870.137427285314 30149.991430535913 17236.930379033089 421362.9338209331 15808.779234662652 9421.6638251394033 898924.38680686057 74385.063188612461 1111907.1715536863 34841.008227199316 1703633.0267593861 28040.719360813498 58450.802054509521 183957.53151234984 2188.5169897675514 97244.040732175112 16949.025543823838 14587.192564666271 35216.075963035226 71987.598696276546 72824.55212636292 27364.319266781211 692819.09373426437 9942.1493250280619 116364.03630322218 17710.099831342697 6941.325865611434 18545.852505400777 161395.23706167936 272273.87449097633 252166.69686372578 11144.225483983755 22200.270181149244 5973.3029095232487 3027.6131879687309 6918.6715874522924 3971.5238950550556 231974.12180890143 15711.866504266858 14937.103530690074 19316.057931691408 39292.015530437231 2960.8349150121212 1701192.7914765328 18003.671239584684 50413.729871377349 16258.929916754365 6142.9990291297436 48447.64189440012 341436.22588846087 24719.577878981829 46037.696734055877 13644.886155456305 3052.1299849152565 69803.931734904647
leaf_count=1600827 39501 12501149 48194 141806 106816 1070404 14718 15164 24516 20495 1447227 13274 13408 2301787 175554 2147921 69395 229371 20124 88681 673898 2294 156600 22544 30467 102374 147325 150495 53163 1242574 36574 385810 33570 10159 47052 458154 1026227 555327 35180 32247 23864 12284 12284 10419 473763 34194 47514 57540 52066 10905 464057 58417 113697 59897 24241 135439 674032 69928 84808 47010 12284 152815
internal_value=2.12808e-06 -0.0142097 -0.031811 0.00687923 0.00330535 -0.0373531 -0.0116426 -0.0131592 -0.017106 -0.0401331 -0.0403865 -0.0197183 -0.0414954 -0.01433 0.000714999 0.00166254 -0.0211718 0.0442312 0.0422126 0.00281286 -0.0416364 -0.030891 0.000747428 0.00458986 0.000946236 -0.00063788 0.00577492 -0.00195705 -0.0107967 0.0040033 -0.0219332 -0.0263394 -0.00592674 0.00790239 -0.00017564 -0.0184495 -0.0419386 -0.00378882 -0.0104271 -0.000320868 -0.0104929 0.00717319 -0.0106353 0.0120573 -0.00268588 -0.00519207 -0.0169671 -0.0151578 0.014383 -0.00329591 0.0425931 -0.0134843 -0.0118855 -0.0159109 -0.00414468 -0.0233633 -0.000989099 -0.00518581 -0.00234092 -0.00653176 0.000603584 -0.00622627
internal_weight=1.4296e+07 1.08195e+07 5.8974e+06 4.92208e+06 4.46411e+06 4.62616e+06 1.27124e+06 1.23459e+06 558508 4.06765e+06 4.05041e+06 528358 3.62686e+06 1.20572e+06 4.17038e+06 3.44522e+06 512549 3.47656e+06 1.77293e+06 2.8449e+06 3.61744e+06 423551 1.04018e+06 275638 178394 764538 130438 634099 62580.4 1.80473e+06 306796 135459 89733.2 88660.6 39466.4 171337 3.43348e+06 600319 85529.3 55830 23683.4 32146.6 9946.28 20920.5 514790 282816 30649 33903.3 49194.2 9902.16 1.72923e+06 174108 156104 105691 40984 64706.6 571519 157227 132507 86469.4 414292 72856.1
internal_count=29923824 29170771 20514379 8656392 8514586 17253978 3260401 3245683 1569280 15684698 15664203 1544764 14214682 3230519 8407770 6806943 1531490 753053 523682 5485411 14201274 1449521 2094916 512001 355401 1582915 236006 1346909 155537 3390495 928732 434004 202256 153145 80015 494728 13527376 1321532 210734 114249 57434 56815 24568 32963 1110798 637035 81708 88007 73130 21064 484181 461086 402669 288972 93636 195336 1191372 352241 282313 197505 839131 165099
is_linear=0
shrinkage=0.03


Tree=10
num_leaves=63
num_cat=0
split_feature=5 9 8 7 5 7 8 8 7 7 8 7 7 10 7 7 10 7 10 7 10 7 7 7 10 8 5 7 7 10 10 7 10 10 10 7 10 10 7 10 7 10 9 7 10 7 10 7 7 10 10 7 7 7 10 7 7 7 10 7 7 10
split_gain=1.48104e+07 2.22636e+06 413605 171617 45126.6 32849 26814.3 19581.7 15131.7 13675.1 18442.2 7590.98 5917.52 8053.2 10112.7 6758.5 6725.75 5801.99 5616.4 22658.1 5542.52 10687.2 7383.09 4932.4 6685.68 4378.25 4258.1 3911.26 5866.5 6745.32 16331 7481.03 11747 6511.01 6403.53 5756.09 6893.39 6917.77 7732.87 5294.36 4695.62 4619.23 3903.78 3622.35 12107.1 8920.69 5074.87 3572.99 3379.7 3995.99 3210.2 10904.6 3199.64 3197.29 6979.6 8132.45 6269.22 6236.18 6145.64 11946 5739.06 7609.75
threshold=1.0000000180025095e-35 4.5000000000000009 0.67644692717078936 0.67167992559793654 2.5000000000000004 -0.51297808981038739 -0.57077231802681661 0.44312301391210612 0.81925054981890411 0.3342611484689354 -0.048362832084465616 -0.66528616069191593 0.91596454896554913 1.5000000000000002 0.88621069759564464 0.99466373373798567 4.5000000000000009 0.57077594689671507 1.5000000000000002 0.85673801594079257 4.5000000000000009 0.85673801594079257 0.86548282553247169 0.89404822654372251 2.5000000000000004 -0.7444366621422277 5.5000000000000009 0.95242846126021108 0.94138322595482449 3.5000000000000004 1.0000000180025095e-35 0.94704596667653973 4.5000000000000009 2.5000000000000004 3.5000000000000004 0.98802474685579866 1.5000000000000002 5.5000000000000009 0.97112537654464559 2.5000000000000004 0.96234642434711437 5.5000000000000009 3.5000000000000004 0.73283908552571653 3.5000000000000004 0.7090011537757156 1.0000000180025095e-35 0.98522604642031408 0.99761913169647187 1.0000000180025095e-35 4.5000000000000009 0.89787622492179153 0.95752911693909493 0.99818282439137029 1.5000000000000002 0.99939377080793557 0.9550229469509578 0.77788564761185042 2.5000000000000004 0.97696484778429815 0.95998215779580554 3.5000000000000004
decision_type=2 2 2 2 2 2 2 2 2 2 2 2 2 2 2 2 2 2 2 2 2 2 2 2 2 2 2 2 2 2 2 2 2 2 2 2 2 2 2 2 2 2 2 2 2 2 2 2 2 2 2 2 2 2 2 2 2 2 2 2 2 2
left_child=1 9 3 7 6 -4 25 17 43 -1 12 -8 13 14 -11 27 48 -3 19 -10 21 -20 -22 -15 -25 -2 -6 28 34 30 -30 32 -31 -32 -14 36 40 -38 -39 -37 52 -34 -13 44 45 -5 -47 -42 -17 -50 51 -26 -29 56 -55 -56 57 -12 -58 60 61 -60
right_child=4 2 5 8 26 -7 11 -9 18 10 53 42 15 23 -16 16 -18 -19 20 -21 22 -23 -24 24 50 -27 -28 35 29 31 33 -33 41 -35 -36 39 37 38 -40 -41 47 -43 -44 -45 -46 46 -48 -49 49 -51 -52 -53 -54 54 55 -57 58 -59 59 -61 -62 -63
leaf_value=-0.0085973719287485862 0.012519026435712155 -0.041623773179849687 -0.025762575567294995 -0.041051680573249337 0.043344444835570074 -0.01545269829034027 0.028371233780278879 -0.03430498158257872 0.0056921122831097952 0.010922980575133643 -0.0031953353417492666 0.040886504487212282 -0.000687342024394556 -0.025761451409431174 -0.015903805405199044 -0.026105527772221498 -0.0018513096031451759 -0.036094092783691335 -0.032396106190325992 -0.041248293405852898 -0.0068711301839765029 -0.0068372901833826652 -0.041691195604989455 -0.034483474984985385 -0.051632019206835224 0.027146606964960181 0.045657022720118047 -0.019971480389335418 0.025538428673815162 -0.05728959140043189 -0.010303244733422843 0.020014982213567147 0.014268606474616786 -0.046399510243315491 -0.014221726711937072 0.0053684172712233965 -0.0039354543868756692 -0.041760874304954364 -0.0094167892037399434 -0.0077068061924611426 -0.010445484613658249 -0.023747376230784788 0.037921368012119525 -0.028266160195973691 -0.011986311997673341 -0.045057381593022909 -0.015622746492430518 -0.033077249044214607 -0.044423096661980473 -0.0074708372747231862 -0.0013529485773658822 -0.0069092451989599627 -0.048821480693184996 0.0078707570855862524 0.0042270278541192393 -0.0091289462887972645 -0.010433203729293789 0.00051208416566278958 0.023201268322881857 0.0017476761019367209 -0.016743789270103289 -0.019389251447129458
leaf_weight=543007.30829463899 29687.183678075671 3270036.1851375103 417169.97265771031 34938.843998447061 1211341.6557345092 834579.1380468905 53249.707647621632 397763.31351526082 36855.765575662255 25343.359472349286 974247.92789530754 1164369.7966036052 88154.352411866188 37487.757992208004 25241.149763539433 32404.538284316659 28471.495310634375 180252.98305769265 44379.781702935696 12357.098460167646 47069.494848459959 22035.588518887758 6201.9114623963833 10517.029448390007 5992.2232908308506 48522.331235662103 1756978.1946755052 8076.1928434967995 9729.7437310516834 3064.2302317619324 14565.556308865547 32451.748094201088 13858.582562983036 6506.222299695015 48921.407374739647 58294.855606019497 183062.29292620718 9502.2097619622946 22182.560707852244 53402.65726852417 53101.577292248607 3629.0244618952274 608903.3462420404 196041.34188377857 61095.093621715903 6258.2780872285366 33435.420733690262 7119.6498461216688 2967.4909990727901 23371.883196860552 29097.991296604276 27071.42608293891 6055.8018907606602 89363.740790739655 80881.35439863801 83275.574162125587 157626.31004354358 702968.70079092681 8307.0942870229483 164088.20742619038 60948.477520555258 6919.722779110074
leaf_count=1303204 45128 13085130 1345799 131823 273190 2277207 45116 1445354 69560 42114 2107744 386534 185730 115124 67152 100615 61539 671641 150872 47611 112882 54027 23479 35408 23763 44126 228582 23031 11169 12284 35000 43302 21716 23595 126275 106300 407897 35099 53818 124671 131296 10300 274551 651262 165935 24492 94672 23382 10849 55830 63527 64834 23437 154951 150919 199172 388202 1412693 10699 325343 163735 19132
internal_value=2.41949e-06 -0.0221143 -0.0340845 -0.0384586 0.0424007 -0.0188887 0.0387966 -0.0406082 -0.0219364 -0.00419557 -0.00344822 0.0395332 -0.00717598 -0.0123728 -0.0024633 -0.00599752 -0.0138181 -0.0413349 -0.0146266 -0.00609492 -0.0181345 -0.0239164 -0.0109257 -0.0169228 -0.0123634 0.0215945 0.0447133 -0.00490034 -0.00169492 0.00455785 -0.00660682 0.0110459 -0.00311648 -0.0214503 -0.00551776 -0.00666684 -0.00890153 -0.00617562 -0.0191178 -0.000882842 -0.0167743 0.00637846 0.0398684 -0.0256576 -0.0218897 -0.0299964 -0.0202646 -0.0131217 -0.0196179 -0.0116357 -0.00862041 -0.0150159 -0.032337 -0.00205605 0.00112429 -0.00254835 -0.0024446 -0.00164145 -0.00583009 -0.00281014 -0.012628 0.0038461
internal_weight=1.42148e+07 9.34175e+06 5.60047e+06 4.34872e+06 4.87305e+06 1.25175e+06 1.90473e+06 3.84805e+06 500669 3.74128e+06 3.19827e+06 1.82652e+06 869645 160751 50584.5 708894 87215.4 3.45029e+06 168900 49212.9 119687 66415.4 53271.4 110166 72678.7 78209.5 2.96832e+06 621679 220881 83805.1 30801.5 53003.6 20551.8 21071.8 137076 400798 289100 214747 31684.8 111698 74353.2 17487.6 1.77327e+06 331769 135728 74632.5 39693.7 60221.2 58743.9 26339.4 62161.6 33063.6 14132 2.32863e+06 253521 164157 2.07511e+06 1.67722e+06 397890 240264 76175.3 15226.8
internal_count=29923824 28626597 20351746 16728740 1297227 3623006 795455 15202125 1526615 8274851 6971647 706201 2039057 411922 109266 1627135 228833 13756771 458431 117171 341260 204899 136361 302656 187532 89254 501772 1398302 469371 157366 69764 87602 44300 58595 312005 928931 697960 496814 88917 230971 201146 32016 661085 1068184 416922 250987 119164 154678 167294 66679 152124 88597 46468 4932590 505042 350091 4427548 3520437 907111 518909 193566 29831
is_linear=0
shrinkage=0.03


Tree=11
num_leaves=63
num_cat=0
split_feature=6 9 8 6 8 7 8 7 7 8 7 6 8 8 8 9 7 7 7 7 7 7 8 7 6 7 6 7 8 7 7 7 7 7 7 0 8 6 7 7 7 7 7 7 7 7 7 7 7 7 7 7 7 6 7 7 7 7 8 7 7 7
split_gain=1.85179e+07 869059 265205 84507.2 52919.3 51280 15664.6 14118.1 11636.6 13498.2 10223.5 9723.83 8350.1 5960.03 5406.05 4621.44 3797.34 3375.92 3106.01 3084.66 4490.57 2831.75 2630.4 2598.75 2267.39 2080.54 1906.96 1832.87 1661.9 1588.26 6031.06 3471.26 3014.29 4394.53 2561.12 1565.18 1554.23 1542.18 1502.13 1754.65 1438.23 1618.6 5663.84 5532.78 5162.18 3949.48 1879.48 1800.59 3197.25 1670.23 3644.72 1435.84 1448.93 1433.04 1413.6 1332.15 1316.75 1280.85 1277.72 1215.4 1180.29 1137.19
threshold=1.0000000180025095e-35 4.5000000000000009 0.67644692717078936 2.5000000000000004 -0.57077231802681661 0.67167992559793654 0.44312301391210612 -0.51297808981038739 0.99865421017599998 0.29958852271690523 -0.73866753694953124 6.5000000000000009 -0.73284120334876357 -0.49065906150552346 0.1318557721318592 3.5000000000000004 0.81925054981890411 0.15101559051660998 0.21862473630160603 0.91596454896554913 0.878110924644389 -0.21861968191509915 -0.57077231802681661 0.99966190462023474 1.5000000000000002 0.82899317702918729 1.5000000000000002 -0.40614700388750385 0.26659387353423869 0.95242846126021108 0.97112537654464559 0.93544191479114935 0.99374995976406788 0.98802474685579866 0.99700008544936913 1.0000000180025095e-35 0.29958852271690523 1.5000000000000002 0.06553689391773225 0.099822040462190967 0.15101559051660998 0.61237135649459018 0.57077594689671507 0.54940630780725741 0.77788564761185042 0.85673801594079257 0.87397152483179585 0.64579916509010216 0.69676570133721638 0.41398981800788198 0.44505654568748165 0.57077594689671507 0.58481550752069722 1.5000000000000002 0.25206111083856975 0.73283908552571653 0.86548282553247169 0.1849296026015865 -0.12545862287572049 -0.27694604220087021 0.96234642434711437 0.89787622492179153
decision_type=2 2 2 2 2 2 2 2 2 2 2 2 2 2 2 2 2 2 2 2 2 2 2 2 2 2 2 2 2 2 2 2 2 2 2 2 2 2 2 2 2 2 2 2 2 2 2 2 2 2 2 2 2 2 2 2 2 2 2 2 2 2
left_child=1 8 5 4 12 6 17 -4 9 14 37 13 21 -5 19 26 55 28 -19 20 -1 -2 -13 -10 -17 -18 54 -9 -3 31 60 -21 33 -32 -34 -24 -15 58 -11 -40 -41 42 43 49 47 -46 -47 -43 -49 57 -51 -20 -53 -23 -12 -7 -27 -42 -6 -29 -31 -48
right_child=3 2 7 11 10 16 -8 27 23 38 15 22 -14 36 -16 24 25 18 51 29 -22 53 35 -25 -26 56 -28 59 -30 30 32 -33 34 -35 -36 -37 -38 -39 39 40 41 44 -44 -45 45 46 61 48 -50 50 -52 52 -54 -55 -56 -57 -58 -59 -60 -61 -62 -63
leaf_value=-0.0022513593060755292 0.018830416409524296 -0.042093059208608154 -0.027882119725084302 0.033418741685173864 0.010329175580707489 -0.029187907425789823 -0.034984066796700408 -0.018240858625400706 -0.0049607351920238499 -0.018967262998414364 0.032974348106669549 0.036361442405785996 0.02293053650859669 0.040452232960180558 -0.023397014608158274 0.033487340846921655 -0.018047614542281633 -0.034319471882152751 -0.041157465733216325 -0.019210099894111071 -0.023659512126212152 -0.0011830225639744272 0.043725669501312646 -0.012214964021715329 0.037291591825895185 -0.026103118481404737 0.03994649742729002 -0.02376267948739889 -0.039446827396521687 -0.021508086483582219 -0.018043962104652676 -0.010591314863446539 -0.022902500295007299 -0.010015507543290345 -0.015375811952957114 0.045224878093467598 0.042489348628077912 0.031475678893463047 -0.0092239420193330514 -0.018855958019062494 -0.010523038770621412 -0.024313216121039434 -0.0060314810484451472 -0.024862374060876834 -0.010363944595527164 -0.021526527753955253 -0.011597442959278894 -0.013372958224996298 -0.020321008365250724 -0.0050323748060846643 -0.013814335565812443 -0.030907090440600395 -0.039021253210687605 0.011638643851186228 0.037790840006446016 -0.033329291438563197 -0.035707575355982513 -0.015537189067632117 0.023512609457858651 -0.020782970443835862 -0.028143938890156487 -0.015944626794374334
leaf_weight=9500.6309393048286 12294.975402101874 2412547.8313991427 397365.17213444412 80117.165980428457 8557.0195453464985 117174.08394867182 386207.50353899598 179103.28443036973 94524.950011566281 71046.859537988901 62334.965188190341 36350.721362367272 56766.053103491664 504619.99389001727 204284.10425308347 349712.57281468809 26545.374626472592 89866.903127998114 458149.1828365773 78577.488315492868 122880.64303794503 28565.533739537001 1225900.6665201336 83896.088529929519 236542.99312923849 94151.177614167333 412352.5229998827 179722.45650365949 234686.26817584038 50274.037131309509 130454.46151788533 90506.180323496461 90372.479805916548 115868.4170473069 74035.425614416599 1286495.5590845793 1019599.0856605619 16706.501744583249 54618.565064847469 71363.740664020181 52909.68501663208 42555.367232337594 81584.991672605276 42627.778426855803 203050.8601077795 43217.064180776477 73443.404638662934 97076.576424077153 154481.58042868972 56417.272948950529 172857.56513930857 22942.27176746726 146223.69847053289 10814.580432236195 460974.56728172302 173706.62732766569 14889.205431729555 344326.6311571449 29223.017032042146 392429.86293646693 46438.108152359724 206466.90445455909
leaf_count=20116 17241 9885326 1331745 52625 13916 398963 1436370 514733 210523 201232 41625 17479 66504 169544 609472 238440 75994 340572 1855898 222426 372894 62037 231418 211259 117801 300831 158797 551425 936185 147875 364741 222945 270192 281525 197639 149976 262281 13574 133834 199882 132864 124749 188890 126046 495251 122662 183418 249588 435098 129092 445602 82542 571597 17997 228817 622011 54981 917275 33609 1161368 146958 545554
internal_value=2.84298e-06 -0.0288323 -0.0360754 0.0409266 0.0352596 -0.0395859 -0.0407068 -0.0233088 -0.0157989 -0.0162753 0.0366541 0.0432256 0.0149879 0.0413957 -0.0190362 0.0371113 -0.0297282 -0.0413637 -0.0395373 -0.0179349 -0.0221232 0.00626251 0.0443774 -0.00837184 0.0350224 -0.0255811 0.0384201 -0.0208898 -0.0418585 -0.0171153 -0.0179545 -0.0145968 -0.0163673 -0.0142675 -0.0195132 0.0444934 0.041815 0.0238847 -0.0146932 -0.0145142 -0.0146902 -0.0145009 -0.0134942 -0.0144041 -0.0154222 -0.0136428 -0.0157032 -0.0186055 -0.0176398 -0.0136925 -0.0116534 -0.0402848 -0.037921 0.0023382 0.0372172 -0.0316612 -0.0274149 -0.0148694 0.020527 -0.021719 -0.0246947 -0.0148041
internal_weight=1.41233e+07 8.28537e+06 5.32571e+06 5.83793e+06 1.68485e+06 4.17709e+06 3.75062e+06 1.14862e+06 2.95966e+06 2.78124e+06 1.5764e+06 4.15308e+06 108441 1.60434e+06 1.01319e+06 1.52192e+06 426466 3.36442e+06 717182 808908 132381 51675.1 2.54875e+06 178421 586256 135586 935662 751256 2.64723e+06 676527 507443 169084 410731 246323 164408 2.5124e+06 1.52422e+06 54486.5 1.76804e+06 1.697e+06 1.64238e+06 1.57102e+06 750724 669139 820292 526178 323127 294114 251558 626511 229275 627315 169166 39380.1 523310 290881 109040 397236 37780 572152 96712.1 279910
internal_count=29923824 28030143 20120541 1893681 1010358 16561270 15108490 3559271 7909602 7487820 846579 883323 163779 484450 2856783 785480 1452780 13672120 2850609 2247311 393010 97275 398873 421782 356241 431806 429239 2227526 10821511 1854301 1408930 445371 1114097 646266 467831 381394 431825 61099 4631037 4429805 4295971 4096089 1939769 1750879 2156320 1346885 851634 809435 684686 1624833 574694 2510037 654139 80034 270442 1020974 355812 1050139 47525 1712793 294833 728972
is_linear=0
shrinkage=0.03


Tree=12
num_leaves=63
num_cat=0
split_feature=5 9 3 8 7 3 3 5 3 7 8 8 7 8 7 7 7 7 7 7 7 7 5 8 5 7 7 9 7 8 7 7 7 7 7 7 7 7 7 8 8 9 7 7 7 7 7 7 2 7 7 7 3 3 7 7 7 7 7 8 9 7
split_gain=1.3344e+07 2.02849e+06 408061 387138 160952 52883.7 50078.1 44693.9 35015.7 25783 25174.4 18321.8 9930.46 8799 7600.43 9621.96 13921.7 7270.34 4781.22 4569.03 4426.94 5739.78 4292.8 3961.32 3825.45 3519.66 3381.01 2972.24 2698.96 2697.22 2452.69 2120.81 4117.11 2449 2111.87 1865.84 1832.81 1713.99 3577.46 1858.81 1653.39 1559.8 1828.73 1463.68 1448.81 1447.45 1747.36 1414.03 1341.45 1322.24 1443.37 1289.65 1341.76 1263.46 1224.39 7217.77 6216.42 2041.14 2184.82 1179.98 1167.29 1157.88
threshold=1.0000000180025095e-35 4.5000000000000009 1.0000000180025095e-35 0.67644692717078936 0.67167992559793654 1.0000000180025095e-35 1.0000000180025095e-35 2.5000000000000004 1.0000000180025095e-35 -0.51297808981038739 -0.57077231802681661 0.44312301391210612 0.81925054981890411 -0.36648370705903521 0.3342611484689354 0.95242846126021108 0.99818282439137029 -0.66528616069191593 0.57077594689671507 0.878110924644389 0.98049069993378934 0.99374995976406788 5.5000000000000009 -0.7444366621422277 1.5000000000000002 0.94704596667653973 0.99053107487289871 3.5000000000000004 0.76696112484652046 -0.065537083312030994 0.86548282553247169 0.77788564761185042 0.7090011537757156 0.80926549319045582 0.58481550752069722 -0.54939360607974019 0.06553689391773225 0.15101559051660998 0.21862473630160603 0.26659387353423869 -0.5129677127369543 11.500000000000002 -0.48314718476766422 0.80926549319045582 1.0000000180025095e-35 0.099822040462190967 0.15101559051660998 0.90892735371523092 1.0000000180025095e-35 -0.66528616069191593 -0.72101013194340913 -0.21861968191509915 1.0000000180025095e-35 1.0000000180025095e-35 0.57077594689671507 0.59868201182722736 0.54940630780725741 0.65883702558178847 0.61237135649459018 -0.013976481981245173 3.5000000000000004 0.031174179426909168
decision_type=2 2 2 2 2 2 2 2 2 2 2 2 2 2 2 2 2 2 2 2 2 2 2 2 2 2 2 2 2 2 2 2 2 2 2 2 2 2 2 2 2 2 2 2 2 2 2 2 2 2 2 2 2 2 2 2 2 2 2 2 2 2
left_child=1 2 13 4 8 9 12 10 11 49 23 18 28 19 36 25 20 -12 37 -1 -17 26 40 51 27 31 -22 53 -6 -23 -14 32 54 -33 -20 -10 61 39 -39 -3 -9 -11 -43 -8 -44 -38 -47 -21 -29 50 -5 -2 -53 -19 56 -56 -16 58 -57 -18 -61 -15
right_child=7 3 -4 5 6 -7 43 22 35 41 17 -13 30 14 15 16 59 24 34 47 21 29 -24 -25 -26 -27 -28 48 -30 -31 -32 33 -34 -35 -36 -37 45 38 -40 -41 -42 42 44 -45 -46 46 -48 -49 -50 -51 -52 52 -54 -55 55 57 -58 -59 -60 60 -62 -63
leaf_value=0.0058423820151516561 0.02198766930090745 -0.040703423343249015 0.037323303602965201 -0.021141251089466545 -0.023779978076718132 0.033004188362422381 0.016671803838275445 0.035562701377614664 0.024005823281334323 -0.0098592960180070802 0.026880278452895943 -0.033007391187664638 -0.015383635159524412 -0.0085823172097395095 -0.0040207257855498571 -0.011937788602753354 0.0018582818750378643 0.037626434838168771 -0.026811453576215762 -0.015503306788945875 -0.0073377016461122361 -0.017598816783462798 0.04403498433324203 0.025730031756479199 0.039885515197902004 0.0025761830260723848 -0.0007033502211718515 0.035508093074805715 -0.029536139270806169 -0.0093700840641051109 -0.027503483534194254 0.0014251727824688837 -0.009557224222184274 -0.0036904666827481634 -0.036363664299689305 0.00033279902047071979 -0.0042134388920229181 -0.03313509272279079 -0.039681546394410697 -0.037906372140198145 0.041891780240582481 -0.025017029700679597 -0.01571276286675883 0.032745313772853828 0.00022729985614327689 -0.013169471619101907 -0.0081700861348251042 -0.01048378513457383 0.029811009806990672 -0.023623609834801548 -0.02901379668078663 0.0054959944506353699 0.030852346341432493 0.041109260608988743 0.0056993300122161273 -0.0014896716397967604 -0.01523874454962499 -0.002612778839242508 -0.010927680442971396 -0.00073627023156958189 -0.0060577655897586955 -0.016194842627077034
leaf_weight=11937.680947780609 8103.4438565075397 2408334.151859358 203827.20597572625 26694.506416603923 202643.98309963942 18122.000254794955 9697.5577118992805 38443.640188589692 6006.6037374287844 41420.893175780773 52757.241477742791 390424.51751285791 141707.71611857414 27936.882706463337 417162.39903914928 354843.79482629895 77539.1259021312 552935.35306173563 24189.468460351229 112612.07441535592 205586.3797146827 53303.516174867749 1715028.8066948056 48149.38618157804 707724.62932577729 71581.040271684527 104162.89351397753 325773.39401330054 114928.1695497632 109514.96433885396 16812.542365372181 97327.9980828017 159382.43443964422 625454.22869728506 150795.6252540648 5978.933649674058 60911.463853627443 89815.490069285035 460914.31314639747 234957.94787658751 1146900.8595927954 19045.424108356237 749902.71745243669 10763.260539874434 5166.7921165376902 79010.577208191156 309086.25387009978 91622.480577126145 42046.926334649324 286559.11280779541 97872.832844749093 19445.343526035547 2078.2230313122272 113082.21607631445 69649.921124473214 30652.612802773714 49760.786172255874 119095.68183583021 78893.15171213448 103426.27855199575 57848.97032135725 50498.578393012285
leaf_count=21519 9201 9918672 84535 84685 655837 10732 11874 18171 6051 107170 45116 1444036 395501 69046 926544 913996 152740 223633 84345 309340 486013 150990 228582 44126 219409 140502 216800 161990 399311 269403 57273 193784 386672 1371423 583129 11470 137761 341678 1873328 939416 255019 59450 2090466 6819 11463 205478 744986 230787 27850 921360 337680 34417 1510 28203 130496 64947 130167 258143 193734 213961 133190 137894
internal_value=3.35e-06 -0.0210263 -0.00394892 -0.0325893 -0.0368827 -0.0178684 -0.020827 0.0407427 -0.0389966 -0.01862 0.0371291 -0.0391599 -0.022802 -0.00633286 -0.00595017 -0.00532483 -0.00756373 0.0378534 -0.0398729 -0.0121971 -0.0094054 -0.00750384 0.0430752 0.0204191 0.0381858 -0.00393609 -0.00510671 0.0370221 -0.0258632 -0.0120641 -0.0166692 -0.00421906 -0.00517077 -0.0030016 -0.0350434 0.0121979 -0.0092523 -0.0401374 -0.038614 -0.0404548 0.0416865 -0.0155318 -0.0158353 0.0251285 -0.0156037 -0.00851311 -0.00918792 -0.0132516 0.0348569 -0.0247458 -0.0273269 0.0117871 0.00794575 0.0382178 -0.00425713 -0.00275571 -0.00521629 -0.00533135 -0.00828684 -0.00118292 -0.00264512 -0.0134836
internal_weight=1.40179e+07 9.24538e+06 3.73263e+06 5.51275e+06 4.26797e+06 1.24478e+06 496553 4.77247e+06 3.77142e+06 1.22666e+06 1.8721e+06 3.75943e+06 476092 3.5288e+06 3.31263e+06 2.78519e+06 1.06623e+06 1.79432e+06 3.36901e+06 216172 827412 472568 2.90037e+06 77776.4 1.74156e+06 1.71896e+06 309749 1.03384e+06 317572 162818 158520 1.64738e+06 924597 722782 174985 11985.5 527444 3.19402e+06 550730 2.64329e+06 1.18534e+06 815536 774115 20460.8 755070 449008 388097 204235 367820 411126 124567 29627 21523.6 666018 765215 298291 466923 228641 109546 238814 161275 78435.5
internal_count=29923824 28626597 8274851 20351746 16728740 3623006 1526615 1297227 15202125 3612274 795455 15184604 1507922 8190316 7628670 6333505 2537093 706201 13740568 561646 2037202 1123206 501772 89254 661085 3796412 702813 441676 1055148 420393 452774 3655910 2090703 1565207 667474 17521 1295165 13073094 2215006 10858088 273190 2268549 2161379 18693 2101929 1088225 950464 540127 189840 1343725 422365 45128 35927 251836 1704031 647320 1056711 516824 258681 499891 347151 206940
is_linear=0
shrinkage=0.03


Tree=13
num_leaves=63
num_cat=0
split_feature=5 9 3 8 7 3 3 5 3 7 8 8 7 8 10 7 7 7 10 8 10 7 7 10 10 7 7 7 7 10 7 8 7 7 10 7 8 8 10 7 8 7 5 5 8 10 7 10 7 7 7 7 7 10 7 7 10 7 9 10 7 10
split_gain=1.26763e+07 1.93794e+06 386799 375254 156520 49967.7 47314.2 44480.7 33475.7 24627.9 24451.8 18082.2 9502.65 8309.09 11759.3 7302.81 9478.29 13126.9 14899.9 8192.23 9372.13 7110.98 5937.01 5212.62 4741.31 6700.82 16333 5612.98 13431.1 5590.35 6459.84 5170.07 4726.31 4531.94 5917.3 6458.88 14860.9 4480.6 4475.96 8535.8 9982.98 4374.66 4308.02 3778.2 3768.9 3595.4 16838.5 4060.99 9042.63 5438.99 3507.94 3464.41 6346.85 7538.92 4275.94 3659.34 4305.08 8900.62 3418.15 8506.06 3300.65 7193.19
threshold=1.0000000180025095e-35 4.5000000000000009 1.0000000180025095e-35 0.67644692717078936 0.67167992559793654 1.0000000180025095e-35 1.0000000180025095e-35 2.5000000000000004 1.0000000180025095e-35 -0.51297808981038739 -0.57077231802681661 0.44312301391210612 0.81925054981890411 -0.35042475891464198 1.5000000000000002 0.3342611484689354 0.95242846126021108 0.99865421017599998 2.5000000000000004 1.0000000180025095e-35 4.5000000000000009 -0.66528616069191593 0.88621069759564464 4.5000000000000009 2.5000000000000004 0.99466373373798567 0.98802474685579866 0.97508442350096236 0.95998215779580554 3.5000000000000004 0.9550229469509578 -0.23537842981696178 0.57077594689671507 0.91939013254733981 1.0000000180025095e-35 0.93544191479114935 0.31595530242620651 -0.065537083312030994 5.5000000000000009 0.93237596376505805 0.29958852271690523 0.89404822654372251 5.5000000000000009 1.5000000000000002 -0.7444366621422277 1.5000000000000002 0.85673801594079257 4.5000000000000009 0.85673801594079257 0.86548282553247169 0.92922379131507438 0.95998215779580554 0.97508442350096236 1.0000000180025095e-35 0.96465729447553372 0.98372640911059162 1.0000000180025095e-35 0.98522604642031408 3.5000000000000004 5.5000000000000009 0.99466373373798567 4.5000000000000009
decision_type=2 2 2 2 2 2 2 2 2 2 2 2 2 2 2 2 2 2 2 2 2 2 2 2 2 2 2 2 2 2 2 2 2 2 2 2 2 2 2 2 2 2 2 2 2 2 2 2 2 2 2 2 2 2 2 2 2 2 2 2 2 2
left_child=1 2 13 4 8 9 12 10 11 -5 44 32 -6 14 22 -15 33 24 -19 23 -21 -12 -1 -20 25 26 51 28 29 -26 -31 -30 -3 -17 35 -35 -37 60 -36 -40 -41 -16 -9 -23 -2 46 -14 48 -47 -49 -24 -18 53 54 -53 -54 -57 -58 -22 -60 -29 -62
right_child=7 3 -4 5 6 -7 -8 42 -10 -11 21 -13 45 15 41 16 17 18 19 20 58 43 50 -25 27 -27 -28 37 31 30 -32 -33 -34 34 38 36 -38 -39 39 40 -42 -43 -44 -45 -46 47 -48 49 -50 -51 -52 52 55 -55 -56 56 57 -59 59 -61 61 -63
